/***********************************************************************************************************************
* DISCLAIMER
* This software is supplied by Renesas Electronics Corporation and is only intended for use with Renesas products. No 
* other uses are authorized. This software is owned by Renesas Electronics Corporation and is protected under all 
* applicable laws, including copyright laws. 
* THIS SOFTWARE IS PROVIDED 'AS IS' AND RENESAS MAKES NO WARRANTIES REGARDING
* THIS SOFTWARE, WHETHER EXPRESS, IMPLIED OR STATUTORY, INCLUDING BUT NOT LIMITED TO WARRANTIES OF MERCHANTABILITY, 
* FITNESS FOR A PARTICULAR PURPOSE AND NON-INFRINGEMENT. ALL SUCH WARRANTIES ARE EXPRESSLY DISCLAIMED. TO THE MAXIMUM
* EXTENT PERMITTED NOT PROHIBITED BY LAW, NEITHER RENESAS ELECTRONICS CORPORATION NOR ANY OF ITS AFFILIATED COMPANIES 
* SHALL BE LIABLE FOR ANY DIRECT, INDIRECT, SPECIAL, INCIDENTAL OR CONSEQUENTIAL DAMAGES FOR ANY REASON RELATED TO THIS 
* SOFTWARE, EVEN IF RENESAS OR ITS AFFILIATES HAVE BEEN ADVISED OF THE POSSIBILITY OF SUCH DAMAGES.
* Renesas reserves the right, without notice, to make changes to this software and to discontinue the availability of 
* this software. By using this software, you agree to the additional terms and conditions found by accessing the 
* following link:
* http://www.renesas.com/disclaimer 
*
* Changed from original python code to C source code.
* Copyright (C) 2017 Renesas Electronics Corporation. All rights reserved.
***********************************************************************************************************************/
/***********************************************************************************************************************
* File Name    : weights_CNN_FE.h
* Version      : 1.00
* Description  : Weights and biases of the layers
***********************************************************************************************************************/
/**********************************************************************************************************************
* History : DD.MM.YYYY Version  Description
*         : 16.06.2017 1.00     First Release
***********************************************************************************************************************/

#ifndef WEIGHTS_CNN_FE_H_
#define WEIGHTS_CNN_FE_H_
const  TPrecision conv2d_weights[] = {2.257678985595703,1.382033348083496,1.4015203714370728,1.4415537118911743,0.6787684559822083,0.5474998950958252,1.3643923997879028,0.3666074275970459,0.5693652629852295,0.018068620935082436,0.35041314363479614,0.3823786973953247,0.48620855808258057,0.05563034117221832,-0.2555481493473053,0.5892320275306702,0.252587229013443,-0.43805646896362305,-0.2852621376514435,-0.36986663937568665,0.23522020876407623,0.10347013175487518,0.19724829494953156,0.6360556483268738,0.6740573048591614,0.8238189816474915,1.1157368421554565,-0.43256860971450806,-0.03399345651268959,-0.2947256863117218,0.07864823192358017,0.3143814504146576,0.16839930415153503,-0.27985596656799316,0.2433333545923233,-0.11374251544475555,-0.042832475155591965,-0.16258808970451355,0.29486173391342163,-0.19949008524417877,-0.2888678312301636,0.05914590507745743,-0.2064916044473648,0.11224785447120667,0.3725091218948364,-0.14991474151611328,0.022024037316441536,-0.14745648205280304,-0.1218196228146553,-0.0976104885339737,0.11406268924474716,0.2069167047739029,-0.1185709536075592,-0.09167435765266418,-0.4497610926628113,-0.3586743474006653,-0.4536624252796173,-0.04744134843349457,-0.3199833929538727,-0.23924560844898224,0.5658931136131287,0.1289522796869278,-0.3125699758529663,0.18924947082996368,0.754199743270874,1.3865593671798706,-0.8432607650756836,-0.2239292412996292,0.6059408783912659,-1.1897568702697754,-0.4872308671474457,0.009619497694075108,-1.0386741161346436,-0.8739415407180786,-1.0047556161880493,-0.14502079784870148,0.2624210715293884,0.051778700202703476,0.6279897689819336,0.7113614678382874,0.9949588775634766,0.17609834671020508,0.5266285538673401,1.5057542324066162,-0.696361780166626,-0.24235489964485168,1.4515445232391357,0.27902600169181824,0.8190791606903076,1.4272090196609497,0.0574888251721859,0.018072161823511124,-0.1399800181388855,0.11631697416305542,0.1092851310968399,-0.2661285698413849,-0.14592766761779785,0.18910236656665802,-0.09677013009786606,0.035525523126125336,0.40096962451934814,-0.14476758241653442,-0.18944810330867767,0.16962097585201263,-0.27426475286483765,-0.10034609586000443,-0.14796428382396698,0.25305742025375366};
const  TPrecision conv2d_biases[] = {-0.5879971981048584,-0.150932177901268,0.15374067425727844,0.35112911462783813,-0.048207156360149384,-0.030485155060887337,1.4527283906936646,1.3652366399765015,0.5493034720420837,-0.7015618085861206,0.0463671050965786,0.41081327199935913};
const  TPrecision conv2d_1_weights[] = {1.2213060855865479,-0.17347629368305206,-0.39802122116088867,-0.16541734337806702,-0.5299948453903198,0.12752410769462585,-0.5233149528503418,0.0027180046308785677,0.4619426727294922,0.3531114161014557,-0.15485349297523499,-0.20161357522010803,-0.014777643606066704,-0.04731746390461922,0.0894286185503006,-0.15563257038593292,0.05083052068948746,-0.0004066219844389707,-0.10589705407619476,-0.22558334469795227,0.2436850219964981,-0.25506797432899475,-0.02177264913916588,0.2539413869380951,-0.012159745208919048,0.21796253323554993,0.04211193323135376,-0.04934434965252876,-0.05402149632573128,0.12905998528003693,-0.07252538204193115,-0.10726965218782425,-0.11518222838640213,0.12082889676094055,0.084426149725914,0.16556377708911896,-0.17786496877670288,0.09084713459014893,0.16141217947006226,-0.015521361492574215,-0.04735855758190155,0.016537558287382126,-0.10489343851804733,-0.11424008011817932,-0.031601421535015106,0.14904512465000153,-0.003222525119781494,-0.08929358422756195,-0.1189371645450592,0.09437629580497742,0.16117365658283234,0.08822199702262878,0.03452577441930771,-0.15453451871871948,-0.057760704308748245,0.3079836368560791,0.19426366686820984,0.0538228377699852,0.047515273094177246,-0.01596740074455738,0.024382364004850388,0.14974215626716614,0.13107891380786896,-0.16455122828483582,-0.01219842117279768,-0.18898561596870422,-0.26475709676742554,-0.10257009416818619,0.1944793164730072,-0.040996748954057693,-0.0721021369099617,0.24616047739982605,-0.11665347963571548,0.20442919433116913,0.3044743239879608,0.14386166632175446,0.15702392160892487,0.24116727709770203,-0.07342886179685593,0.35303837060928345,0.19574226438999176,0.25785359740257263,-0.4364037811756134,-0.012714553624391556,-0.3708403408527374,-0.3842123746871948,0.4487781822681427,-0.32742202281951904,0.053180694580078125,0.516761302947998,0.10186843574047089,0.01756712794303894,0.03461691737174988,-0.0913759246468544,-0.13444209098815918,0.06725314259529114,0.10472176969051361,0.13582678139209747,-0.06486640870571136,0.16979491710662842,0.03629143536090851,0.0892510712146759,0.07741889357566833,0.05738014727830887,0.16709591448307037,-0.02252260595560074,-0.09857946634292603,-0.02554509788751602,-0.3645806908607483,-0.33069807291030884,-0.33276721835136414,0.08100249618291855,-0.3788449466228485,-0.3600394129753113,1.1665124893188477,0.3666909635066986,-0.026771333068609238,0.0725896805524826,-0.15115059912204742,-0.1010403260588646,0.013948106206953526,-0.15260885655879974,-0.028759052976965904,0.09548861533403397,0.2735360264778137,0.1365278661251068,-0.2910493016242981,-0.3863508701324463,-0.08514732122421265,0.24669207632541656,-0.07822682708501816,0.12098497152328491,0.5342249274253845,0.4056766927242279,-0.05271580442786217,0.2607012391090393,-0.05287740007042885,0.034438371658325195,0.11119119077920914,0.15140976011753082,0.13724122941493988,0.022941354662179947,0.15357321500778198,0.19986990094184875,0.009706394746899605,-0.14356835186481476,-0.12981939315795898,-0.16245108842849731,-0.04868728294968605,0.004425006452947855,-0.011195018887519836,0.01198186818510294,-0.032486967742443085,-0.06943460553884506,-0.09575487673282623,0.13133801519870758,-0.08597348630428314,0.0454828217625618,0.16241443157196045,-0.14632928371429443,-0.16111285984516144,0.14067530632019043,0.36928021907806396,0.2129037231206894,0.09295963495969772,0.46161994338035583,0.027737345546483994,0.24128217995166779,0.11693625897169113,0.18350231647491455,0.06205696612596512,0.37904518842697144,0.20772390067577362,0.3310099244117737,0.13726001977920532,0.14684784412384033,-0.001497478922829032,0.11705592274665833,0.25101715326309204,0.181832954287529,0.2589377164840698,-0.018230704590678215,-0.015944598242640495,0.15816280245780945,0.1669483631849289,0.16417816281318665,0.41946640610694885,0.40893319249153137,0.30528977513313293,-0.3435143530368805,-0.3052919805049896,-0.18906255066394806,-0.13300050795078278,-0.39194804430007935,-0.3545907735824585,0.47075048089027405,0.003670211648568511,-0.39027127623558044,0.038307636976242065,-0.17950309813022614,0.09796570241451263,0.07315609604120255,-0.11993841081857681,-0.047064196318387985,-0.04659762233495712,0.19064350426197052,0.1563691645860672,0.22108711302280426,0.1313035637140274,0.02564869448542595,0.09979289025068283,0.10963041335344315,-0.061911389231681824,0.13931943476200104,0.24771887063980103,0.1387401670217514,-0.14927524328231812,0.03298798203468323,0.06414209306240082,-0.1545301079750061,0.20045027136802673,0.1428343802690506,-0.28251564502716064,0.01014621276408434,-0.13943126797676086,0.09145354479551315,0.13173465430736542,0.0328763946890831,0.020441317930817604,0.08026891201734543,0.15746064484119415,-0.02836586907505989,-0.09837733954191208,-0.12528756260871887,-0.0740947276353836,-0.040717869997024536,-0.15269766747951508,0.04999113082885742,0.05602063238620758,0.13283014297485352,0.056405577808618546,-0.027246393263339996,-0.13671106100082397,0.12271437048912048,-0.133576437830925,-0.008712700568139553,0.07793133705854416,-0.11590786278247833,0.014537408016622066,0.11127239465713501,-0.10580115765333176,-0.1386699378490448,0.13772056996822357,-0.14434653520584106,0.014430866576731205,0.06768350303173065,-0.12343823909759521,-0.1500907689332962,-0.05580933019518852,-0.13934555649757385,0.0896540954709053,-0.08494729548692703,-0.09690139442682266,-0.15182174742221832,-0.08372285962104797,-0.05684851482510567,-0.027595680207014084,0.04343608766794205,0.07962692528963089,-0.07323683053255081,-0.12529733777046204,-0.12145926058292389,-0.10657994449138641,0.007689194288104773,0.03937504440546036,0.06204460188746452,-0.10062198340892792,0.15028461813926697,0.03884173929691315,0.08654256165027618,0.15560011565685272,0.10177186131477356,0.10777095705270767,0.11903586983680725,-0.14864060282707214,0.0530206598341465,0.14924989640712738,-0.0657845214009285,-0.09357190877199173,0.15304920077323914,0.08160783350467682,0.03774842247366905,0.03532273322343826,0.07110968977212906,-0.02575114741921425,-0.1315704733133316,-0.07827211171388626,-0.12464173138141632,0.209244042634964,0.06626875698566437,-0.21110568940639496,-0.010988503694534302,-0.11814115941524506,-0.23293092846870422,-0.06605970114469528,-0.20462587475776672,-0.09364032745361328,0.008284800685942173,-0.09733738005161285,-0.08180832862854004,-0.01721559837460518,0.11637646704912186,0.019631104543805122,-0.14749619364738464,-0.09323069453239441,-0.06386848539113998,-0.08120156079530716,-0.0012720454251393676,0.13266496360301971,0.053128842264413834,0.06572696566581726,-0.06122130528092384,-0.07706484198570251,0.025942446663975716,-0.0436641201376915,0.0392928384244442,-0.053745247423648834,-0.12027984112501144,-0.16052252054214478,0.026009947061538696,-0.09278738498687744,0.014629085548222065,0.0777859017252922,-0.10416094213724136,0.12334902584552765,-0.04823896288871765,-0.08683637529611588,-0.07002011686563492,0.1087893471121788,0.07745753228664398,0.09723979234695435,0.009698032401502132,-0.056383173912763596,0.026432720944285393,-0.108193539083004,0.0365738645195961,0.11529809981584549,-0.15220297873020172,-0.13740235567092896,-0.09645732492208481,0.056113168597221375,0.014988973736763,0.11922910064458847,0.10403891652822495,-0.11108968406915665,0.16541416943073273,-0.02144690603017807,0.02847783826291561,-0.08267915993928909,0.11445128172636032,-0.05997047945857048,-0.09493114054203033,-0.044637471437454224,-0.031199807301163673,-0.1608356237411499,0.07962090522050858,-0.01759207807481289,0.054946426302194595,0.14393794536590576,0.03844308480620384,0.12874990701675415,0.15409314632415771,0.03932692110538483,-0.07215262949466705,-0.16470444202423096,0.08538847416639328,-0.1464182436466217,0.041342560201883316,-0.07164299488067627,-0.029828086495399475,-0.08408373594284058,-0.11519432067871094,0.1017865240573883,-0.0603935569524765,0.024274379014968872,-0.0409737154841423,-0.04192381352186203,0.14641232788562775,-0.018492626026272774,0.15232813358306885,-0.1470816284418106,0.05998215824365616,-0.0318947359919548,0.13697464764118195,-0.030180471017956734,0.09425893425941467,-0.049558594822883606,-0.143959179520607,-0.15930446982383728,-0.1248430386185646,-0.06827379018068314,0.1374572515487671,-0.10531122982501984,-0.05372186750173569,0.004651335068047047,-0.045055460184812546,0.10980528593063354,-0.1577938050031662,0.13394230604171753,-0.013522165827453136,-0.0619390569627285,0.031016072258353233,-0.059627413749694824,-0.03101545013487339,0.033484041690826416,0.1456747055053711,-0.06391637772321701,0.1248021349310875,0.11057576537132263,-0.13224369287490845,0.07676101475954056,-0.06809868663549423,-0.1580715775489807,0.02934274636209011,0.04630272835493088,0.025552531704306602,-0.0468619130551815,0.03106882981956005,-0.05270317941904068,-0.14814193546772003,0.01934848539531231,0.1573173999786377,-0.04369621351361275,-0.6382912993431091,-0.8705524802207947,-0.6273121237754822,-0.1976819932460785,0.27432316541671753,-0.09844596683979034,0.5410096645355225,1.1005066633224487,-0.05535976216197014,-0.2579680383205414,-0.2811890244483948,-0.1474953591823578,-0.010977087542414665,-0.0637412741780281,-0.04229487478733063,0.10604723542928696,0.3050607144832611,-0.24766342341899872,-0.40537819266319275,-0.0825379490852356,0.08368732035160065,0.19005581736564636,0.20537206530570984,0.28661680221557617,0.4419001042842865,0.3393920361995697,0.22744205594062805,0.03626476973295212,0.010780046693980694,0.11648396402597427,0.08239931613206863,0.198145791888237,0.09044809639453888,0.12477990984916687,0.1586795300245285,-0.19280800223350525,-0.21696536242961884,-0.15011920034885406,0.08255073428153992,0.19326889514923096,0.12268439680337906,0.0972852036356926,0.10613113641738892,-0.035317230969667435,-0.053577970713377,0.07079163193702698,0.10091812908649445,0.09693682938814163,-0.06953500956296921,-0.007470862939953804,-0.14370597898960114,-0.042950596660375595,0.050156790763139725,0.14673979580402374,0.230879008769989,0.3864954113960266,0.02290324494242668,0.012741832993924618,0.04485892131924629,0.009525599889457226,0.006637027021497488,-0.12862113118171692,-0.2912423610687256,-0.46726709604263306,-1.0177639722824097,0.13516482710838318,0.02219294011592865,-0.014461402781307697,0.239354208111763,0.189775750041008,0.1881304532289505,0.5885570645332336,0.3799262046813965,0.6191837191581726,0.3608296811580658,0.19156107306480408,0.21089252829551697,0.31351807713508606,0.22850768268108368,0.2170448899269104,-0.29258185625076294,-0.5982261896133423,-0.46638187766075134,-0.15753188729286194,0.02237706445157528,0.09437011927366257,0.3001369833946228,0.6005557179450989,0.5784657597541809,-0.08847349137067795,-0.12907977402210236,0.0741518959403038,-0.09226228296756744,0.0348140187561512,-0.08709830790758133,-0.08547386527061462,-0.13926544785499573,-0.08167358487844467,0.12372122704982758,0.10139349102973938,0.09127911925315857,0.13524200022220612,-0.007250440306961536,-0.03582855686545372,0.09083161503076553,-0.07931537181138992,0.040665403008461,-0.08439341187477112,0.11636241525411606,-0.04752189666032791,-0.15677422285079956,0.12124619632959366,-0.09115765243768692,-0.04889208823442459,-0.013687346130609512,-0.12497536838054657,0.12129494547843933,0.029050229117274284,-0.00402244133874774,0.027396563440561295,0.02766508050262928,-0.14221054315567017,0.15550237894058228,-0.014160740189254284,-0.08595594763755798,0.10168682783842087,-0.15178251266479492,-0.14739961922168732,-0.026848919689655304,0.15646158158779144,0.005413404665887356,0.049426715821027756,0.13777771592140198,0.008841593749821186,0.16014428436756134,0.05014153942465782,0.07886101305484772,0.001471585244871676,-0.004086409695446491,0.016159290447831154,-0.07466438412666321,0.08878139406442642,-0.048471737653017044,0.14638078212738037,-0.08818316459655762,-0.10219825059175491,0.020233208313584328,0.15999563038349152,0.1119408831000328,0.124544657766819,-0.02937256172299385,-0.040473610162734985,-0.12473829835653305,-0.0035249008797109127,0.12487534433603287,0.01883881911635399,-0.062276218086481094,-0.033426519483327866,0.08889756351709366,-0.03541708365082741,-0.13956178724765778,0.12822437286376953,-0.04824095591902733,0.04063614830374718,0.13595548272132874,-0.05677979812026024,0.04763804003596306,0.01019392441958189,-0.10476472228765488,-0.11751285940408707,0.1462770253419876,-0.07481564581394196,-0.15475599467754364,-0.09104256331920624,-0.08096197992563248,-0.11462309211492538,-0.09930632263422012,-0.012319832108914852,0.013547440990805626,-0.15760035812854767,0.04290241375565529,0.12899209558963776,0.0005780733772553504,0.05671418458223343,-0.13792312145233154,0.002172822831198573,-0.15744751691818237,0.06979143619537354,0.11313126236200333,-0.15962231159210205,0.08034547418355942,-0.008861100301146507,0.12909039855003357,-0.1181826964020729,-0.06407952308654785,-0.014079350978136063,0.13480620086193085,0.00225047511048615,0.04220901057124138,0.08039510995149612,0.010845647193491459,0.006898350082337856,0.10487272590398788,-0.1596015840768814,0.006577763240784407,-0.12407965213060379,0.04350854456424713,0.15250848233699799,-0.15739277005195618,-0.11308603733778,-0.06366743892431259,0.09156979620456696,0.03518195450305939,-0.06406327337026596,-0.09166556596755981,-0.42345789074897766,-0.4496341347694397,-0.32669827342033386,0.4946282207965851,0.5187525749206543,0.13843365013599396,0.2174222618341446,0.2950652837753296,0.21162556111812592,-0.1031016856431961,-0.08540254086256027,-0.17118053138256073,0.11862080544233322,0.1831417679786682,0.17816771566867828,0.011391263455152512,0.30992212891578674,0.2022741138935089,-0.1528509557247162,-0.0834975391626358,-0.21562352776527405,0.0668724998831749,0.1620677411556244,0.02887417934834957,-0.1358569711446762,0.13455848395824432,-0.18418511748313904,0.272302508354187,0.022661156952381134,0.11410223692655563,0.09023717045783997,-0.0440136194229126,-0.22509638965129852,-0.0722014382481575,-0.12352816015481949,-0.06977816671133041,-0.06181124597787857,-0.056353066116571426,-0.1864040642976761,0.014834180474281311,0.08771251142024994,0.10135097056627274,-0.10912151634693146,0.15276332199573517,0.17725832760334015,-0.13287627696990967,0.10371384024620056,-0.12874186038970947,0.15569451451301575,0.07778453826904297,0.08157432824373245,0.16219373047351837,-0.12646862864494324,-0.07651612907648087,0.48834002017974854,0.45238906145095825,0.5233409404754639,-0.32803502678871155,-0.2668386995792389,-0.0276336707174778,-0.5097554922103882,-0.3053959012031555,-0.2954561412334442,-0.6663490533828735,-1.0678191184997559,-0.5698672533035278,-0.10040737688541412,-0.20188482105731964,-0.258059561252594,-0.05511227250099182,-0.3689105808734894,-0.3404506742954254,0.9191890358924866,0.8211318254470825,0.9331695437431335,0.07875984907150269,-0.016658196225762367,0.13267213106155396,-0.266944020986557,0.06519349664449692,0.012778506614267826,-0.25024402141571045,-0.22149020433425903,-0.2876037359237671,0.1567651480436325,0.356840044260025,0.07182732224464417,0.32832542061805725,0.2876753509044647,0.1457166075706482,-0.13302630186080933,-0.06169101968407631,-0.11955112963914871,-0.09555704891681671,-0.09903179854154587,0.014865796081721783,0.06273132562637329,0.009338442236185074,0.06497001647949219,-0.22868351638317108,-0.27764931321144104,-0.23728875815868378,-0.1572469025850296,0.11512543261051178,-0.22136421501636505,-0.031170213595032692,-0.11213982850313187,0.018475741147994995,-0.5788686275482178,-0.16643516719341278,0.6061306595802307,-0.1929870843887329,-0.3163338303565979,0.38226553797721863,0.516026496887207,-0.3755725622177124,-0.29873526096343994,0.06046297401189804,-0.008478936739265919,0.1234322115778923,0.021634342148900032,-0.043164730072021484,0.0846048891544342,0.23387587070465088,-0.0937952920794487,-0.14980195462703705,0.06656789779663086,0.10971268266439438,0.43622007966041565,0.039467956870794296,-0.2612058222293854,0.19288510084152222,-0.08155282586812973,-0.15941424667835236,-0.07300599664449692,0.03823215514421463,-0.08209964632987976,0.11056757718324661,-0.010717244818806648,-0.03931880369782448,0.0008451462490484118,0.0010927942348644137,-0.061054326593875885,0.13625231385231018,0.00022776599507778883,0.08202303200960159,0.0024272860027849674,-0.0634085014462471,-0.19865286350250244,-0.06839022785425186,-0.0666721761226654,-0.02174297347664833,0.032515741884708405,-0.09612440317869186,0.15232250094413757,-0.1577652245759964,-0.05827176570892334,-0.09665986150503159,-0.00812038965523243,0.07518156617879868,-0.15381909906864166,0.037426359951496124,0.2774084508419037,0.11264293640851974,-0.00679443497210741,0.26818445324897766,0.20847541093826294,0.20672854781150818,0.08937697112560272,0.2619588077068329,0.11861049383878708,-0.22485415637493134,0.23605042695999146,0.45817339420318604,0.15217140316963196,-0.06736092269420624,0.5012869238853455,-0.14992807805538177,-0.035802971571683884,0.21077056229114532,0.16738338768482208,0.21829329431056976,0.179619699716568,-0.1351223737001419,0.001229124958626926,0.17079585790634155,0.13309027254581451,-0.07063235342502594,-0.19470307230949402,-0.16660967469215393,-0.17689795792102814,0.6208162903785706,-0.3494621515274048,-0.2852109968662262,0.46773529052734375,-0.30613112449645996,-0.4745611548423767,0.2811194658279419,-0.12795668840408325,0.12467234581708908,0.178849995136261,-0.024512814357876778,0.05350441485643387,0.1354038417339325,-0.12779466807842255,-0.042549289762973785,-0.09292104840278625,-0.023338446393609047,0.08422816544771194,0.09345830231904984,-0.053770843893289566,0.15508805215358734,-0.10272128134965897,-0.0309689212590456,0.16544565558433533,0.03497305139899254,0.20940130949020386,1.0387234687805176,1.3197699785232544,-0.25408026576042175,-0.27957993745803833,0.04680312052369118,-0.5004569888114929,-0.5856134295463562,-0.6335620880126953,0.21759198606014252,0.022496642544865608,0.16789276897907257,0.05161113664507866,-0.17455925047397614,-0.15303197503089905,-0.09574123471975327,-0.11235932260751724,-0.09008809179067612,0.2427549958229065,0.20324309170246124,0.302506685256958,-0.3635707497596741,-0.32185354828834534,0.020749663934111595,-0.17469698190689087,-0.25568249821662903,-0.690459668636322,0.11925345659255981,-0.10811111330986023,0.016787463799118996,-0.1258120983839035,0.10058417916297913,-0.14933538436889648,-0.02807592786848545,-0.10255122929811478,0.06754937022924423,-0.09350486099720001,-0.08581649512052536,-0.11841049790382385,-0.14899790287017822,-0.14924047887325287,-0.0027887136675417423,-0.022557320073246956,-0.2079114466905594,-0.08861568570137024,-0.13300521671772003,-0.15052430331707,-0.0016288110055029392,-0.11143660545349121,-0.15464456379413605,0.0622054785490036,0.022730236873030663,-0.050696101039648056,0.1495252102613449,-0.038374535739421844,-0.03060969151556492,-0.18853890895843506,0.21117766201496124,-0.13686740398406982,0.3211178779602051,0.19397246837615967,0.14439435303211212,0.3904481530189514,0.3369096517562866,0.5728667974472046,0.4113602042198181,0.09646254777908325,0.037623919546604156,0.19634154438972473,0.10922647267580032,0.1085171326994896,0.38113170862197876,0.12649260461330414,0.004054435063153505,-0.09856019169092178,0.12783193588256836,-0.023683147504925728,-0.049631986767053604,-0.10957792401313782,-0.018840761855244637,-0.2536308467388153,0.3901573419570923,0.5118163824081421,0.6896677017211914,-0.29461947083473206,-0.1703384965658188,-0.1454189121723175,-0.4150114059448242,-0.5458167791366577,-0.7773723602294922,0.06361546367406845,0.04003487899899483,0.18127752840518951,-0.05976604297757149,-0.10276924073696136,0.011799836531281471,-0.05065358802676201,-0.06071361154317856,-0.09441926330327988,0.008243223652243614,-0.0624614916741848,0.08985459059476852,-0.15237045288085938,0.06998372822999954,-0.040660180151462555,-0.06457145512104034,-0.16395021975040436,-0.05032692849636078,-0.7282118797302246,-0.47349661588668823,0.11307039856910706,-0.730819821357727,-0.14237254858016968,0.5213081240653992,-0.39591437578201294,0.10465389490127563,0.9179781675338745,-0.22624054551124573,0.03827647864818573,-0.12188615649938583,-0.11303385347127914,-0.12653446197509766,0.03982416167855263,-0.07847677171230316,0.11992219090461731,0.3438350558280945,0.06623662263154984,0.07278641313314438,0.11521237343549728,-0.20587028563022614,-0.09845464676618576,0.16551139950752258,-0.01063753105700016,0.1961592435836792,0.45854565501213074,0.23502866923809052,0.12573008239269257,0.08302096277475357,0.10137798637151718,-0.10358180850744247,0.04520132392644882,0.15908530354499817,-0.0752255767583847,0.06959687173366547,-0.00729894544929266,-0.02625713311135769,-0.03629413992166519,-0.0047773211263120174,0.10191657394170761,0.006952996831387281,0.18543125689029694,0.15872083604335785,0.07054627686738968,0.1386728137731552,0.10967781394720078,-0.07850120961666107,0.07190782576799393,-0.0635899007320404,-0.020446233451366425,0.04464009776711464,-0.15452226996421814,-0.12025036662817001,0.09379953891038895,-0.14965005218982697,-0.1866479516029358,0.06510542333126068,0.019802089780569077,-0.20899803936481476,0.11424578726291656,0.06736820191144943,-0.0568346232175827,0.014361596666276455,0.14711467921733856,-0.059706494212150574,0.1563609540462494,0.4084126651287079,0.19843921065330505,0.19282959401607513,0.4614748954772949,0.18331123888492584,0.14748546481132507,0.14287278056144714,0.19604317843914032,-0.1592925786972046,-0.05037473142147064,0.1453823745250702,-0.10095857083797455,-0.025159241631627083,0.16097445785999298,-0.35606926679611206,-0.14926934242248535,0.08419622480869293,-0.14271090924739838,0.05840989574790001,0.23995858430862427,-0.09969528019428253,0.28203973174095154,0.49115651845932007,0.11239809542894363,0.07726944983005524,0.16466452181339264,0.043358150869607925,-0.03745013102889061,-0.10563886165618896,-0.11000528931617737,-0.051155298948287964,0.14652374386787415,0.054981790482997894,-0.13085567951202393,-0.02574259229004383,-0.017463887110352516,0.08441000431776047,-0.08533202856779099,0.0471189022064209,0.05957898497581482,-0.09515056759119034,0.19551736116409302,0.016986573114991188,-0.10894808918237686,0.36055082082748413,0.0740022361278534,0.07996901869773865,0.5935763716697693,0.3736932575702667,-0.0755423754453659,-0.11435481905937195,-0.09733810275793076,0.0166314709931612,0.148969829082489,0.10499017685651779,0.018796317279338837,0.01492341235280037,0.11195767670869827,0.05132594704627991,0.086726114153862,-0.019965827465057373,-0.28173625469207764,0.187712162733078,-0.02755872532725334,-0.03510873019695282,0.33283519744873047,0.078224778175354,-0.01646275818347931,-0.14915886521339417,-0.11182554811239243,0.0864792987704277,0.03383207693696022,0.005705414339900017,-0.047145113348960876,-0.19480589032173157,-0.048182547092437744,-0.13609740138053894,-0.1429065316915512,0.14019423723220825,-0.10662531107664108,-0.14921656250953674,-0.11906745284795761,-0.003576507791876793,-0.06401000171899796,-0.12044646590948105,0.12914828956127167,-0.13836103677749634,0.05967061594128609,0.10881223529577255,-0.14656414091587067,-0.09242585301399231,-0.05428622290492058,0.14469614624977112,-0.05693024769425392,0.12114658951759338,-0.1655276119709015,0.05425525829195976,0.00729096494615078,-0.2144431173801422,-0.11122097074985504,0.15850421786308289,-0.29374223947525024,-0.06728407740592957,0.054845016449689865,-0.11793193221092224,-0.23220567405223846,-0.2456352263689041,-0.1853388100862503,0.02882770635187626,-0.3585110604763031,-0.4900393486022949,-0.27042630314826965,-0.5137869715690613,-0.09994928538799286,-0.20933085680007935,-0.3215121328830719,-0.0784798264503479,-0.16162298619747162,-0.25347334146499634,0.12947693467140198,0.09345614165067673,-0.15818960964679718,0.13472279906272888,0.03107351064682007,-0.43081170320510864,0.015998361632227898,0.2834140956401825,-0.38920679688453674,0.3507671356201172,0.06225445866584778,-0.4348289966583252,0.08812040090560913,0.10222652554512024,-0.011765451170504093,-0.14119696617126465,-0.021236779168248177,-0.10362877696752548,0.07268837094306946,0.033668577671051025,-0.07783298939466476,0.09682583063840866,-0.2177472710609436,0.06238073483109474,0.008150485344231129,-0.08882380276918411,0.09338454902172089,-0.040929101407527924,-0.1693272590637207,-0.19377675652503967,0.8242467045783997,0.012321294285356998,-0.6660374402999878,1.1823005676269531,-0.12856703996658325,-0.543875515460968,0.382123202085495,-0.40661492943763733,-0.36102166771888733,0.31703898310661316,0.14162302017211914,-0.14688411355018616,0.35170143842697144,0.049789100885391235,-0.033159706741571426,0.06859786063432693,-0.19223818182945251,0.11269330978393555,0.5762691497802734,-0.15185031294822693,-0.1649148315191269,0.37459301948547363,0.01735980436205864,-0.06130168214440346,-0.1451050192117691,-0.040965862572193146,-0.014462083578109741,0.10980377346277237,0.16903072595596313,0.03742224723100662,0.0023778046015650034,0.05396437644958496,0.13786406815052032,-0.07000046223402023,0.08139093220233917,0.19554749131202698,0.05692093446850777,-0.08734648674726486,-0.0208964291960001,0.14411304891109467,-0.08594778925180435,-0.026254188269376755,-0.030597735196352005,-0.14984942972660065,0.018738992512226105,-0.04276606813073158,-0.10101750493049622,-0.08745115250349045,-0.12057354301214218,-0.09821676462888718,-0.08697366714477539,-0.11586955189704895,-0.09830952435731888,0.12010177969932556,0.16295962035655975,0.12238062918186188,0.4542309641838074,-0.004665175452828407,-0.09385678172111511,0.3343102037906647,-0.07712823152542114,0.02918505296111107,0.30716145038604736,0.0310839656740427,0.07811581343412399,-0.44404876232147217,-0.01838359609246254,0.018294554203748703,-0.17322596907615662,0.05414808541536331,0.030173275619745255,-0.0005982096190564334,0.18902231752872467,0.007969949394464493,0.08021547645330429,-0.03782748058438301,0.14410457015037537,0.0665048360824585,-0.0911300778388977,0.058721426874399185,0.1572345793247223,0.7438231706619263,-0.5120667219161987,-0.5870860815048218,0.4375930726528168,-0.2736934721469879,-0.3169764578342438,-0.14353729784488678,-0.260392427444458,-0.333683043718338,-0.0629618689417839,0.09663223475217819,0.16315768659114838,0.09486553817987442,-0.15443137288093567,0.1333644986152649,-0.04608212411403656,-0.014666282571852207,-0.049733128398656845,-0.08748117089271545,0.13504090905189514,-0.054704487323760986,0.14946258068084717,-0.13161517679691315,0.1462024599313736,0.10996485501527786,0.18110176920890808,0.12330859899520874};
const  TPrecision conv2d_1_biases[] = {0.12123166769742966,0.27504655718803406,-0.034809645265340805,-0.017240991815924644,0.07293656468391418,-0.037715792655944824,-0.30602744221687317,0.16432306170463562,0.15834930539131165,0.11005217581987381,-0.09035735577344894,0.18441469967365265};
const  TPrecision dense_weights[] = {0.0541684627532959,0.0327468067407608,0.07018863409757614,-0.16198040544986725,-0.09336452931165695,0.38045036792755127,-0.0926448330283165,-0.010444756597280502,-0.2025274932384491,-0.15888431668281555,-0.010346575640141964,0.3094504177570343,0.4268815517425537,-0.18830181658267975,0.10189838707447052,0.07703426480293274,-0.28238189220428467,0.016333049163222313,0.059617817401885986,-0.13879868388175964,0.012857361696660519,-0.21663138270378113,0.09409476071596146,-0.05197102203965187,0.03794302046298981,0.23323145508766174,-0.04730049893260002,-0.18690532445907593,0.15067370235919952,0.16171737015247345,0.015364756807684898,-0.12808990478515625,0.4261432886123657,0.02515549212694168,-0.2470659762620926,0.1365857869386673,-0.05340364947915077,-0.05745968967676163,-0.003308607265353203,-0.2521617114543915,0.1443265974521637,-0.1436307281255722,0.20061886310577393,-0.16122189164161682,0.26922857761383057,-0.06090596318244934,0.005230648443102837,-0.04608943685889244,-0.09185458719730377,0.040743958204984665,-0.3294132649898529,-0.12476928532123566,-0.08950453996658325,0.10391072928905487,0.03258013725280762,0.265432208776474,-0.053187958896160126,-0.018550971522927284,0.35728928446769714,0.30705147981643677,0.07848705351352692,-0.258212685585022,-0.10545090585947037,-0.012553784996271133,0.04724079743027687,-0.169353187084198,-0.03206952288746834,0.12721627950668335,-0.1301334947347641,-0.18506087362766266,0.011948112398386002,0.11995843052864075,0.04188883677124977,0.008063837885856628,0.03894156962633133,0.07156794518232346,0.26598960161209106,0.05642862245440483,0.17275503277778625,0.19675086438655853,-0.22803670167922974,-0.08897870033979416,0.1391526609659195,-0.1084681898355484,0.12662631273269653,-0.10393164306879044,-0.08876645565032959,0.07519064098596573,-0.1455814093351364,0.14629246294498444,-0.21381904184818268,0.3566659688949585,0.06746146827936172,0.1488332599401474,0.12590551376342773,-0.0846278965473175,-0.18083372712135315,-0.2670104205608368,0.03422219306230545,-0.0004742260498460382,-0.019753869622945786,0.05506770312786102,0.12332415580749512,0.013401558622717857,-0.16989544034004211,0.11864028126001358,0.06663567572832108,0.05128464475274086,0.11317002773284912,0.019669974222779274,0.08965529501438141,0.1390572339296341,0.17824719846248627,0.0001609304890735075,-0.17334501445293427,-0.18702414631843567,-0.1882018893957138,-0.06984010338783264,0.1383875012397766,0.043309494853019714,-0.14800934493541718,-0.06531783938407898,0.34467098116874695,-0.12571614980697632,-0.17787288129329681,-0.056185346096754074,0.07490428537130356,0.18148192763328552,-0.11096403002738953,-0.07577040791511536,0.19132544100284576,0.210799440741539,0.08795300871133804,-0.08118726313114166,-0.12422262132167816,0.017618311569094658,-0.04796519875526428,0.18174433708190918,-0.04449479281902313,-0.22761192917823792,0.13665072619915009,-0.009120005182921886,0.04668663814663887,-0.1164342612028122,-0.09929564595222473,0.14847280085086823,-0.20359723269939423,-0.07248958945274353,0.31618887186050415,-0.17055967450141907,-0.17944513261318207,-0.08485516905784607,0.1513247787952423,0.1659877449274063,0.26875847578048706,0.012984604574739933,-0.13676895201206207,-0.1493998020887375,-0.07864366471767426,0.06789125502109528,-0.19068926572799683,-0.31599029898643494,-0.013765759766101837,-0.1770877093076706,-0.03237878531217575,-0.14935611188411713,-0.013607222586870193,-0.02056027762591839,-0.019773416221141815,0.3246375620365143,-0.17078447341918945,-0.1901240199804306,0.28405076265335083,0.17054873704910278,0.12830525636672974,0.06555107980966568,-0.17751581966876984,0.14045444130897522,-0.030232833698391914,-0.2111552208662033,0.04790404438972473,0.06607723236083984,-0.17190547287464142,0.19653326272964478,-0.036372896283864975,0.26648303866386414,0.1857234686613083,-0.06558835506439209,0.19992151856422424,-0.05344908684492111,0.02022591233253479,-0.09206835925579071,0.027929890900850296,-0.03901602700352669,0.08195224404335022,-0.05007416382431984,-0.14809346199035645,0.03425251692533493,0.1470002382993698,0.055259790271520615,0.03967473655939102,0.03917685151100159,0.15782193839550018,0.07327088713645935,0.13082881271839142,0.12207654118537903,0.14735089242458344,-0.09898333996534348,0.30277132987976074,-0.008447661064565182,0.20250637829303741,-0.1118064597249031,-0.12155880779027939,-0.012608771212399006,0.04415867105126381,-0.10703253000974655,0.18541797995567322,0.0687919333577156,-0.15386445820331573,0.07080624252557755,0.019820379093289375,0.09848470985889435,0.16952891647815704,-0.0560399554669857,-0.24986575543880463,0.05929633229970932,0.04094801843166351,-0.12769263982772827,-0.1952953338623047,-0.08457926660776138,0.02977057173848152,-0.16020610928535461,-0.22526997327804565,-0.1467408388853073,-0.0179359782487154,0.024397099390625954,0.04437648132443428,-0.06886385381221771,-0.2236068844795227,-0.15239840745925903,0.19295072555541992,-0.12339972704648972,-0.14080168306827545,-0.10359486937522888,-0.11476844549179077,0.2860233783721924,-0.13243575394153595,0.08213058859109879,-0.21556232869625092,-0.10346826165914536,-0.022236809134483337,-0.42698436975479126,-0.19001007080078125,0.005447709932923317,-0.29135626554489136,0.2526840269565582,0.008398598060011864,-0.006878833286464214,0.043477173894643784,0.0464974083006382,0.0389644093811512,-0.01474595908075571,0.10387328267097473,0.000403095327783376,-0.05378356948494911,-0.15652261674404144,-0.08177264034748077,0.11681002378463745,-0.12070704996585846,-0.032334908843040466,-0.08712892979383469,-0.22481456398963928,-0.09985709190368652,-0.09004794806241989,0.08271769434213638,-0.16396857798099518,-0.12129144370555878,-0.27984878420829773,0.3376806378364563,-0.12404652684926987,0.3604510724544525,-0.13546881079673767,0.20395530760288239,0.06617359071969986,0.12671570479869843,0.10245101898908615,-0.1584179699420929,-0.08195631951093674,-0.06775997579097748,-0.13626568019390106,0.0739935114979744,0.024415219202637672,-0.04878910630941391,-0.038311947137117386,0.4552203118801117,-0.12254652380943298,0.016399623826146126,0.12714597582817078,-0.2651640772819519,-0.018851613625884056,0.024454979225993156,0.05205360800027847,-0.10156767070293427,-0.19177423417568207,0.009855400770902634,-0.1314307451248169,0.026593025773763657,0.09837886691093445,-0.08054210990667343,0.03683261573314667,-0.13280996680259705,0.29089659452438354,-0.08666837215423584,0.29328209161758423,0.24320583045482635,-0.07462240755558014,0.07644772529602051,0.12911421060562134,0.20757098495960236,0.15767046809196472,0.28487202525138855,0.18542839586734772,0.04781578481197357,0.024420658126473427,-0.013111557811498642,0.013017033226788044,-0.08777984976768494,0.01371864601969719,-0.12573376297950745,0.01906493306159973,0.14565591514110565,0.1729714423418045,0.019341958686709404,0.16205157339572906,0.25870323181152344,-0.05113314837217331,0.3219047486782074,-0.015256136655807495,0.34445956349372864,-0.030606640502810478,-0.008169724605977535,-0.3077150583267212,-0.11782830953598022,-0.1159144714474678,-0.1035580262541771,-0.017339933663606644,0.1354205459356308,0.2318638563156128,-0.13197053968906403,-0.11717653274536133,0.21804748475551605,0.012069977819919586,-0.1315069943666458,-0.05569237843155861,0.03432105854153633,0.0039121839217841625,-0.179507777094841,-0.09537378698587418,0.021698959171772003,0.02698984369635582,0.02934446558356285,0.32449546456336975,-0.02082846127450466,-0.08800840377807617,-0.015559637919068336,0.03467461094260216,-0.14629563689231873,0.11042072623968124,0.14825326204299927,-0.013349718414247036,0.08057975023984909,0.18779924511909485,0.05836508050560951,0.15142783522605896,0.12881232798099518,0.22611278295516968,-0.05492008477449417,0.1412886679172516,-0.49194344878196716,0.0024175287690013647,-0.1161065399646759,0.14477603137493134,0.08830522745847702,-0.05810853838920593,0.12596973776817322,0.02847248688340187,-0.030913271009922028,-0.10468669980764389,-0.07342694699764252,-0.019142428413033485,0.5370829105377197,-0.13700132071971893,0.021767521277070045,-0.17997236549854279,-0.271342933177948,0.10365675389766693,-0.27271074056625366,-0.10637176781892776,-0.11209075897932053,-0.11832743883132935,-0.08385670185089111,0.21266686916351318,0.04572177305817604,0.059835005551576614,-0.13338375091552734,-0.06611030548810959,0.03786787763237953,-0.01300189271569252,-0.15787866711616516,-0.0887855514883995,0.13217970728874207,-0.16439834237098694,0.11067803204059601,-0.00020484437118284404,0.029400037601590157,-0.020380770787596703,0.09189342707395554,0.07746665179729462,0.11628375947475433,-0.04698845371603966,0.11912576109170914,0.21894307434558868,0.004061758052557707,0.21919065713882446,-0.15412795543670654,-0.2375437170267105,-0.20364528894424438,0.16916979849338531,0.1946176439523697,-0.14815552532672882,0.08389762043952942,0.06228475272655487,0.20355211198329926,-0.08888988196849823,-0.15127131342887878,0.04145420715212822,-0.06948212534189224,0.013726986944675446,-0.055562179535627365,-0.12004537880420685,-0.1286693960428238,0.010922049172222614,-0.13896282017230988,-0.25802263617515564,-0.03088066726922989,0.18433497846126556,0.009250229224562645,0.2126416265964508,0.210439071059227,-0.08708417415618896,-0.17990289628505707,0.04137244448065758,0.0662718415260315,-0.041416022926568985,-0.12828268110752106,0.06273356825113297,-0.0884808823466301,-0.13794083893299103,-0.05035664886236191,-0.018820112571120262,-0.0533231645822525,0.16007523238658905,0.0553487204015255,-0.14027689397335052,-0.20136375725269318,-0.036961011588573456,-0.2153230756521225,-0.012921309098601341,-0.04259021580219269,0.021178068593144417,-0.08985402435064316,-0.014124050736427307,0.05926322564482689,-0.06973250210285187,0.2970493733882904,-0.09485392272472382,-0.07333499193191528,0.11097698658704758,-0.0464174784719944,0.00023556103406008333,0.07994887977838516,0.1082909107208252,0.08532452583312988,-0.11271045356988907,0.1436385214328766,-0.21025224030017853,0.08471158891916275,0.014489938504993916,0.06374876946210861,0.22704242169857025,0.05703270807862282,0.22098207473754883,-0.006992281414568424,-0.08529103547334671,-0.05400960147380829,0.07065045088529587,0.2823439836502075,-0.11917947232723236,0.17033323645591736,0.1842382699251175,-0.1159341037273407,0.22319170832633972,0.1560988873243332,-0.034104619175195694,-0.15842780470848083,0.1741986870765686,-0.23585055768489838,0.07714483141899109,0.13690216839313507,-0.09553069621324539,-0.03201564773917198,0.1437738984823227,0.2710115313529968,-0.10197938978672028,-0.006861605681478977,-0.21289509534835815,0.20198874175548553,-0.049653902649879456,0.12883888185024261,0.15275874733924866,0.20716826617717743,-0.15880726277828217,-0.03917044773697853,-0.16525541245937347,-0.4738840162754059,0.09410715848207474,0.18256157636642456,-0.2194768190383911,0.16551820933818817,0.11076951771974564,-0.012058962136507034,0.031611669808626175,0.1325199156999588,-0.03383589908480644,0.09965702146291733,-0.11299057304859161,-0.13519996404647827,0.14691254496574402,-0.12907078862190247,0.03640811890363693,0.1297086477279663,0.03513288125395775,-0.0665455088019371,0.058744896203279495,-0.4535656273365021,0.23261189460754395,0.2140040099620819,0.10139618813991547,-0.3474395275115967,-0.17626821994781494,0.16940055787563324,0.21084964275360107,-0.12681692838668823,0.2246028184890747,-0.19620807468891144,0.16781719028949738,0.11880628019571304,0.04203331470489502,-0.14752817153930664,-0.18075096607208252,-0.03860476613044739,0.044331010431051254,0.1648416668176651,0.012976807542145252,0.037536244839429855,0.06618401408195496,-0.08927799016237259,0.1405642032623291,-0.19527412950992584,0.11972836405038834,-0.13372115790843964,-0.21161489188671112,0.09975750744342804,0.3330526351928711,0.34528255462646484,-0.023048587143421173,0.13591760396957397,-0.119332455098629,0.21273775398731232,-0.1802080124616623,-0.17910385131835938,-0.11675933748483658,-0.05953596532344818,0.12010426074266434,0.10792586207389832,0.14577078819274902,-0.09237318485975266,0.017522495239973068,0.028012892231345177,0.18221139907836914,-0.3533884286880493,0.035097405314445496,-0.01664613001048565,-0.2929094135761261,-0.19486069679260254,-0.07812494039535522,0.06521450728178024,0.10587749630212784,-0.07572322338819504,0.016687199473381042,0.07296561449766159,0.056635960936546326,0.0573418065905571,-0.2498134821653366,-0.372003972530365,0.1385786384344101,-0.2632991373538971,0.11308195441961288,0.21219061315059662,-0.11569920927286148,0.301259845495224,-0.05119490996003151,-0.05925197899341583,-0.3193555474281311,-0.2050924450159073,0.27342498302459717,0.15662695467472076,0.00852250773459673,-0.04377997666597366,-0.11019860208034515,-0.0742127001285553,0.25972509384155273,0.17206595838069916,0.14058247208595276,-0.045616406947374344,-0.111900195479393,0.34977981448173523,-0.03795009106397629,-0.10170188546180725,0.3977285921573639,0.03936908766627312,0.07462724298238754,-0.029960958287119865,0.448555052280426,0.2056160718202591,-0.25793391466140747,0.07030642032623291,0.25340408086776733,-0.07129751145839691,-0.08108504116535187,0.1722462773323059,-0.058055002242326736,-0.24554848670959473,-0.048691119998693466,0.15183678269386292,0.13813376426696777,-0.022285711020231247,0.22011715173721313,0.16488254070281982,0.10429728031158447,-0.017953500151634216,0.27069091796875,-0.27449238300323486,-0.15858277678489685,-0.0077948239631950855,-0.06566675752401352,0.15286695957183838,-0.11072483658790588,0.2427133023738861,-0.01797964796423912,0.13130784034729004,-0.21372240781784058,-0.01415225025266409,-0.07898031920194626,-0.13531620800495148,0.2505713701248169,-0.07819955050945282,0.006020363885909319,-0.23031964898109436,0.16869324445724487,0.13175205886363983,0.022548899054527283,0.12772728502750397,-0.1285921186208725,-0.01523778960108757,0.0866251289844513,-0.08009978383779526,-0.10108844935894012,-0.11647408455610275,0.06469877064228058,-0.008759289048612118,0.019106032326817513,0.10171747207641602,0.04681647568941116,-0.29716038703918457,0.09217679500579834,-0.12107016891241074,-0.17649701237678528,-0.09103019535541534,-0.12079448252916336,0.14590775966644287,0.134338840842247,0.049962837249040604,0.033742330968379974,-0.10515446215867996,0.034943100064992905,0.016767220571637154,0.030058005824685097,-0.08243799954652786,0.11700834333896637,-0.0428791306912899,-0.1609337478876114,-0.1278596669435501,0.17834974825382233,0.10736127197742462,0.04890258237719536,0.18792155385017395,0.06533686816692352,0.11793297529220581,0.17472831904888153,0.07611392438411713,0.006941641215234995,0.09238885343074799,-0.02303154766559601,-0.03793148323893547,0.017121244221925735,0.12344339489936829,0.03937525302171707,0.3597963750362396,-0.11274770647287369,-0.052975986152887344,-0.04752911627292633,-0.13550902903079987,-0.056514859199523926,0.12748609483242035,-0.09021470695734024,-0.0970165804028511,0.15837322175502777,-0.024593280628323555,0.09820158034563065,0.03679335117340088,-0.19020073115825653,-0.2476937621831894,0.1934909075498581,-0.2566339075565338,0.042162779718637466,0.24330370128154755,-0.04039772227406502,0.04682642221450806,0.17524683475494385,0.039891812950372696,0.007081099320203066,0.0955374538898468,0.21651193499565125,-0.043538134545087814,0.12889614701271057,0.05609177425503731,-0.23547840118408203,-0.0545862540602684,0.06682929396629333,-0.13899298012256622,-0.12166842073202133,-0.0171543899923563,-0.18515616655349731,0.18200992047786713,-0.17712105810642242,-0.09245326370000839,-0.12728148698806763,0.008933141827583313,-0.04887112230062485,0.10827698558568954,-0.03301951289176941,0.07299956679344177,-0.1644366979598999,-0.051643192768096924,-0.10923416912555695,0.0203019380569458,0.1526583731174469,0.08950743079185486,0.26540181040763855,-0.0904775857925415,0.01824324205517769,0.15653812885284424,0.04443640261888504,0.13449986279010773,0.3185986876487732,0.17837445437908173,-0.11293578147888184,0.11139043420553207,0.12539345026016235,-0.09759769588708878,-0.20276418328285217,0.12678515911102295,0.10965263843536377,-0.21164093911647797,0.15100646018981934,-0.13668209314346313,-0.004591477103531361,0.03023146279156208,0.0249238982796669,0.1387576460838318,0.04499853402376175,0.0668804943561554,0.19375979900360107,-0.05946784466505051,-0.0050707594491541386,-0.018602821975946426,0.008470796048641205,-0.10306723415851593,0.41298621892929077,0.047670312225818634,-0.004974655341356993,0.006528770085424185,0.13784053921699524,0.05457296222448349,0.04041219502687454,-0.03184479475021362,0.08962798118591309,-0.20618027448654175,-0.2771369516849518,0.185524582862854,0.11509384959936142,-0.03130820393562317,-0.23422130942344666,-0.033045973628759384,0.06463190168142319,0.1689549684524536,-0.17793750762939453,-0.12563228607177734,0.22636069357395172,0.1214732900261879,0.06135577708482742,0.06530177593231201,0.0399257056415081,0.1613028645515442,0.13757143914699554,-0.1650250405073166,0.21489585936069489,0.16051678359508514,0.04116654396057129,-0.3681316077709198,0.22946186363697052,-0.15151411294937134,0.05457007512450218,0.14839628338813782,0.0850842297077179,0.1289869248867035,0.3767474293708801,-0.024863548576831818,0.10990822315216064,0.0999603271484375,0.11194127798080444,0.2695384919643402,-0.12551873922348022,0.1338033825159073,-0.21814486384391785,0.1569942981004715,-0.24526190757751465,0.1385629028081894,0.5330736041069031,0.26115041971206665,-0.0424722358584404,-0.2931654155254364,0.060225553810596466,0.1685575395822525,0.07214252650737762,-0.1767089068889618,0.11955617368221283,-0.25766363739967346,0.010545528493821621,0.02140742354094982,0.1683536320924759,0.03157134726643562,-0.11323437094688416,-0.05891581252217293,0.07365065813064575,0.14586269855499268,0.004405772779136896,0.10219055414199829,0.21768797934055328,-0.20026795566082,-0.042459581047296524,-0.2445947378873825,0.1526680588722229,0.02436945214867592,-0.22184117138385773,-0.3592487573623657,0.040894296020269394,-0.07983831316232681,0.0855635553598404,-0.05600455403327942,0.025745319202542305,0.1711004227399826,-0.18474222719669342,-0.0237115491181612,-0.15951651334762573,0.1040475144982338,-0.13213495910167694,-0.011994429863989353,0.16654126346111298,-0.15453551709651947,-0.03318765386939049,0.1581692397594452,0.13841627538204193,-0.09107203781604767,-0.06810693442821503,-0.03479347378015518,-0.07546278089284897,0.20351316034793854,0.142120361328125,-0.09041334688663483,0.06113039329648018,-0.05975981429219246,-0.11504052579402924,-0.0863039568066597,-0.002137601375579834,0.1773826777935028,-0.016845211386680603,0.05403086915612221,-0.1498621255159378,-0.07457806915044785,0.12975235283374786,-0.2983361482620239,0.025236139073967934,0.011335402727127075,-0.14003431797027588,0.25793761014938354,0.1751987785100937,-0.0867624431848526,-0.1074998751282692,0.35856911540031433,0.2926941215991974,-0.26823315024375916,0.011037880554795265,0.14760884642601013,-0.061426375061273575,0.004030067473649979,-0.025152241811156273,0.07606646418571472,0.09610752016305923,-0.2730717957019806,0.15865392982959747,-0.09668107330799103,-0.0006210434366948903,0.21814484894275665,-0.004660685546696186,0.217889204621315,-0.0074342405423521996,-0.04214237257838249,-0.04978715628385544,0.039458587765693665,-0.12840142846107483,0.17797015607357025,0.12460856884717941,-0.039133764803409576,-0.14931300282478333,0.06012272462248802,0.14050669968128204,0.02072502113878727,-0.010723017156124115,0.10463067889213562,0.010485248640179634,-0.08450052887201309,0.2866925299167633,0.1996133029460907,-0.017500389367341995,-0.16097936034202576,0.0350419357419014,0.00493651395663619,-0.0007190107135102153,-0.07041902095079422,-0.2111603170633316,0.1515742689371109,0.10690414160490036,0.2289513200521469,0.3324469327926636,0.0936458557844162,0.1591688096523285,0.09107019007205963,-0.14982055127620697,-0.11230546236038208,0.07849917560815811,-0.11412335187196732,-0.1302463412284851,-0.12092152237892151,0.15768957138061523,0.13355624675750732,0.021497193723917007,0.25350117683410645,0.03368746489286423,0.03014387935400009,-0.0682414099574089,0.02587837539613247,-0.032554708421230316,0.29351744055747986,-0.19521267712116241,-0.1567603051662445,0.031307853758335114,0.0248795747756958,-0.10048181563615799,0.13554994761943817,0.016712157055735588,-0.1783621609210968,-0.09533777832984924,0.3182782530784607,0.1251700073480606,0.14098064601421356,-0.1083073690533638,-0.09081064164638519,0.15599778294563293,0.04326257109642029,-0.09026867151260376,0.05074484273791313,-0.02372090145945549,0.2072562575340271,-0.04649598151445389,-0.011395767331123352,0.06153605505824089,-0.28402969241142273,-0.16314437985420227,-0.003931274637579918,-0.007232590578496456,-0.11273441463708878,0.042370181530714035,-0.06341467052698135,0.02178909443318844,0.08102883398532867,0.06206098198890686,0.12039007991552353,-0.1351860910654068,0.12449648231267929,-0.09339768439531326,0.23679408431053162,-0.027667643502354622,-0.08866888284683228,0.038289230316877365,-0.04081721231341362,-0.1072821170091629,0.016453437507152557,0.06618838012218475,0.12578752636909485,0.156884104013443,-0.1967756599187851,-0.13747946918010712,0.11650245636701584,0.05173107981681824,0.10078684240579605,0.07603704184293747,0.008237827569246292,-0.09598436206579208,0.008002527058124542,-0.16109389066696167,-0.008800904266536236,0.11502565443515778,0.020358677953481674,-0.009541871026158333,0.14187206327915192,-0.04511997103691101,-0.015600984916090965,-0.1701863557100296,0.15946295857429504,0.0753684714436531,0.19923104345798492,-0.09723616391420364,0.06891132891178131,0.17398624122142792,0.004297532606869936,0.1949620544910431,0.10678654909133911,0.156752809882164,-0.05878891795873642,0.19007974863052368,-0.06280389428138733,0.09505649656057358,0.07242199778556824,0.03027167357504368,0.0527065135538578,-0.10833314806222916,0.05909312143921852,0.15211965143680573,0.1162281259894371,-0.16190402209758759,-0.04891369491815567,-0.13780006766319275,0.1818540394306183,-0.023135041818022728,-0.06489849090576172,0.11389191448688507,-0.1765439808368683,0.08115439862012863,0.06025223806500435,-0.13073840737342834,0.050796009600162506,-0.13985410332679749,0.10940295457839966,0.07466451823711395,-0.1559721678495407,-0.11235353350639343,-0.06979996711015701,0.086554154753685,0.17094044387340546,-0.08622346073389053,0.07086001336574554,-0.03227989003062248,-0.1373341828584671,-0.0545310378074646,0.14862270653247833,0.01598954200744629,0.14624613523483276,0.17433343827724457,0.07935240864753723,0.16613462567329407,-0.05916561931371689,-0.10910888761281967,0.05053981766104698,-0.12346984446048737,0.12513825297355652,-0.11318673193454742,-0.14058998227119446,-0.028518948704004288,-0.04477626457810402,0.05296572297811508,0.06388548016548157,-0.1413789987564087,0.020559802651405334,-0.08289095759391785,0.1162707582116127,0.0201894398778677,-0.0019482022617012262,0.12028344720602036,-0.006485947873443365,-0.09072389453649521,0.12149304151535034,0.15315967798233032,-0.1612124890089035,0.013519048690795898,-0.0388980358839035,-0.15800541639328003,0.06656988710165024,0.1374848335981369,0.005760984495282173,0.032188016921281815,-0.010296745225787163,-0.004665751941502094,-0.15617316961288452,-0.11831947416067123,0.06516996771097183,0.14112472534179688,0.11301839351654053,-0.020353181287646294,0.06473766267299652,0.18188980221748352,0.013240464963018894,-0.13054406642913818,-0.02731199935078621,-0.0656798779964447,-0.07769213616847992,-0.16120754182338715,-0.10457035154104233,0.1046370267868042,-0.16233479976654053,0.14258718490600586,-0.19410265982151031,-0.07081712037324905,-0.06312648206949234,-0.0858013853430748,0.15543308854103088,-0.19224685430526733,0.036507319658994675,0.14081628620624542,-0.15469293296337128,-0.174568772315979,-0.02974407747387886,0.041412293910980225,-0.059601280838251114,0.0065266904421150684,0.11131864041090012,-0.0447394996881485,-0.0896606370806694,0.17253877222537994,0.014299878850579262,-0.15176260471343994,-0.10185675323009491,0.06056654825806618,0.1659918874502182,0.12755540013313293,-0.005333267617970705,-0.06211046129465103,-0.11449293047189713,0.13445210456848145,0.055532634258270264,-0.10568603873252869,-0.13446180522441864,0.08114758133888245,0.17693713307380676,0.046096645295619965,0.11129467934370041,-0.1618019938468933,0.14292088150978088,0.1271304339170456,-0.17635498940944672,-0.12403815239667892,-0.08601091802120209,0.017517490312457085,0.12301338464021683,0.17083871364593506,-0.05564156547188759,0.14023157954216003,0.021466359496116638,-0.10323076695203781,-0.19984018802642822,0.04572010040283203,-0.0267135389149189,0.11554904282093048,-0.16430798172950745,0.13392218947410583,-0.05094810947775841,0.09208924323320389,0.12802818417549133,0.1698448210954666,0.09567273408174515,0.15087755024433136,-0.13578294217586517,-0.19064272940158844,-0.05578458681702614,0.0542825385928154,-0.1402612328529358,0.129463791847229,-0.16112397611141205,-0.1834610551595688,-0.10814066231250763,-0.16293840110301971,-0.2007395327091217,0.09313876926898956,0.17578871548175812,0.09540721774101257,-0.1701333075761795,-0.1561206430196762,0.17944303154945374,0.0947173610329628,0.1652582734823227,-0.1316411793231964,-0.044913556426763535,-0.07761389762163162,0.15399670600891113,-0.1659170687198639,0.06841433793306351,0.14996033906936646,0.035001806914806366,-0.14340022206306458,0.02398170344531536,-0.15440250933170319,0.12478906661272049,0.011417007073760033,-0.08943095803260803,0.1690446138381958,-0.13078533113002777,-0.09872832149267197,0.13010194897651672,0.1903986632823944,-0.008209350518882275,-0.16447341442108154,-0.11366989463567734,-0.12004300951957703,-0.17424243688583374,0.18592537939548492,-0.009069327265024185,0.05962426960468292,0.1256217062473297,0.015414453111588955,-0.03829528018832207,-0.01177801564335823,0.17371603846549988,0.024058429524302483,-0.14980965852737427,0.1870800107717514,0.021013302728533745,-0.15430691838264465,-0.062352754175662994,-0.1408100724220276,0.034002210944890976,-0.06770400702953339,-0.07467622309923172,-0.11437693238258362,0.06832195073366165,-0.11516301333904266,-0.13887199759483337,0.09292618930339813,0.027244269847869873,-0.11493390798568726,-0.09518590569496155,-0.14380532503128052,-0.09528830647468567,-0.10842656344175339,-0.04337643086910248,-0.09639252722263336,0.15736795961856842,0.12835000455379486,0.12441038340330124,0.004186511039733887,0.19131313264369965,-0.16178008913993835,0.1735144406557083,0.019515693187713623,0.17219136655330658,0.06823517382144928,-0.06523115932941437,0.23846301436424255,-0.10298812389373779,0.08388403058052063,0.11105296015739441,0.11009907722473145,0.11321121454238892,0.03230420500040054,-0.1272057741880417,0.05690581724047661,0.03612189367413521,-0.07845812290906906,0.24075321853160858,0.14620009064674377,-0.0728912353515625,0.12963268160820007,-0.003968735691159964,-0.03039334900677204,-0.17765969038009644,-0.11872486025094986,0.14909884333610535,-0.2027319222688675,0.16303770244121552,0.007774132303893566,-0.1160900667309761,-0.09415209293365479,-0.15838252007961273,0.11735354363918304,-0.05180363357067108,-0.15195313096046448,0.13711236417293549,0.0643286406993866,0.09507957845926285,-0.10279157012701035,0.050600942224264145,0.1795538067817688,-0.09760710597038269,0.14922679960727692,0.08730106055736542,0.041271697729825974,0.07579392939805984,-0.19618000090122223,0.024414777755737305,0.002355573233217001,0.08145423233509064,-0.1710619330406189,-0.23203599452972412,0.1081736609339714,0.13230571150779724,-0.08517345786094666,-0.16912010312080383,-0.15948724746704102,-0.1828307956457138,-0.1315099447965622,-0.18204542994499207,0.10479319840669632,0.027767561376094818,0.12390092015266418,0.017285652458667755,-0.014331408776342869,0.09519356489181519,0.14330467581748962,0.16675767302513123,0.046695586293935776,-0.1040559932589531,0.03626583144068718,-0.11951790750026703,0.14398851990699768,-0.10333151370286942,-0.12003276497125626,-0.10727059096097946,0.005024692043662071,0.02833317592740059,0.0032974949572235346,-0.14529138803482056,0.03564642369747162,0.07434118539094925,-0.061814453452825546,0.13941359519958496,0.10110597312450409,0.13187113404273987,-0.14696715772151947,0.16542573273181915,-0.028976697474718094,-0.059339407831430435,0.19208461046218872,-0.10681893676519394,-0.06620671600103378,0.18874415755271912,-0.0799175277352333,-0.08797468990087509,0.1045418307185173,0.12076733261346817,-0.04149996489286423,-0.12398015707731247,0.14734798669815063,0.10588228702545166,0.17145511507987976,-0.1449483186006546,0.07199795544147491,0.11385015398263931,0.1317199021577835,0.08327781409025192,-0.06814811378717422,0.04902854189276695,-0.1809348613023758,0.15251696109771729,0.1312277913093567,0.1424282342195511,-0.0287504680454731,0.06608883291482925,0.09518758952617645,-0.053042251616716385,0.10944975912570953,0.1303565800189972,-0.1618565022945404,0.19148974120616913,0.12611868977546692,0.12535032629966736,0.14879274368286133,-0.06234613060951233,-0.08368773013353348,-0.08735208958387375,0.036460310220718384,-0.12282440066337585,-0.07358692586421967,0.0551772266626358,0.10006730258464813,-0.10424263030290604,-0.1804569810628891,-0.14940932393074036,-0.1166270300745964,-0.0830731987953186,-0.19875670969486237,-0.08366362750530243,-0.03353339433670044,-0.007485906593501568,-0.024547120556235313,0.018417470157146454,-0.01264602318406105,-0.16947095096111298,-0.20349563658237457,-0.06101228669285774,-0.10987445712089539,0.10843714326620102,-0.04165066406130791,0.06929805129766464,-0.1755225956439972,0.07398063689470291,0.11871390044689178,0.059002768248319626,-0.13458995521068573,-0.02926109917461872,-0.16631923615932465,0.0247749425470829,-0.14869622886180878,0.0066145434975624084,0.06753243505954742,-0.13751837611198425,-0.16654980182647705,0.2107924371957779,0.05608087778091431,0.06269169598817825,-0.036035507917404175,0.06686028093099594,0.10134771466255188,-0.0916585922241211,0.05341362580657005,-0.12588007748126984,0.22387373447418213,-0.0486510768532753,-0.21644780039787292,-0.17918086051940918,0.0014377061743289232,-0.11985760182142258,0.10130641609430313,-0.013111565262079239,-0.011328022927045822,0.19293056428432465,-0.05710446462035179,0.18968039751052856,0.04687776416540146,0.18139109015464783,-0.0908561423420906,0.12572826445102692,0.09222587943077087,0.17774641513824463,0.04358350485563278,-0.008148147724568844,-0.06492111831903458,-0.07314792275428772,-0.08477138727903366,-0.04431736469268799,-0.09622923284769058,0.18816280364990234,-0.13463380932807922,0.07300619781017303,-0.10970506072044373,0.0031280112452805042,-0.1159452497959137,0.022938532754778862,-0.15615259110927582,0.1699470579624176,0.023177985101938248,-0.10131973773241043,0.16609448194503784,-0.06250640004873276,0.02185586281120777,0.00029754178831353784,0.05349396914243698,0.1573278158903122,-0.10531096905469894,0.190528005361557,0.01419035717844963,-0.2023540735244751,0.14427931606769562,-0.060169413685798645,0.06557267159223557,0.12524941563606262,-0.16209647059440613,0.17619623243808746,0.08738281577825546,0.0799335166811943,-0.03560057654976845,0.11664868146181107,0.021271562203764915,0.1805185228586197,0.12205126881599426,-0.18587909638881683,0.13996894657611847,0.14822112023830414,-0.06343676894903183,0.103392593562603,0.1013888344168663,0.21037082374095917,-0.0611029714345932,-0.12950323522090912,0.06728970259428024,0.056845467537641525,0.09385508298873901,-0.12267877161502838,-0.02417164482176304,-0.06770390272140503,0.027426764369010925,-0.15173938870429993,0.01631021499633789,-0.11419302225112915,-0.05282716453075409,0.08521188050508499,-0.11146153509616852,0.013378131203353405,0.042531274259090424,0.1708844006061554,-0.12529300153255463,-0.0800742506980896,-0.14749717712402344,-0.1513470709323883,-0.1044837087392807,-0.15840229392051697,0.08199867606163025,-0.10678047686815262,0.08193287998437881,-0.046378545463085175,0.017857983708381653,0.16676169633865356,-0.17734014987945557,0.050991762429475784,0.017350004985928535,0.0878971740603447,0.06032175570726395,0.1294105052947998,0.08757014572620392,0.09116467833518982,-0.10555798560380936,0.0009478130959905684,0.14881263673305511,-0.18071351945400238,0.09398430585861206,0.06652021408081055,0.0874997228384018,0.15967437624931335,-0.17938703298568726,0.1206417828798294,0.009376637637615204,0.16552524268627167,-0.03900168463587761,0.0192693080753088,0.11968931555747986,-0.07405760139226913,0.040609244257211685,0.05163540691137314,-0.015071677044034004,-0.15460196137428284,-0.1475972831249237,-0.13954269886016846,0.09470196068286896,-0.19156214594841003,-0.07788565754890442,-0.17846329510211945,-0.1485843062400818,-0.07844121754169464,0.05210592597723007,0.06792095303535461,0.06310116499662399,0.0926489308476448,-0.12769486010074615,-0.13809052109718323,0.10104019939899445,-0.10488688200712204,0.05984343960881233,-0.06350911408662796,0.1781960278749466,-0.06689106673002243,0.12945297360420227,0.12638944387435913,-0.14211522042751312,0.06887812912464142,-0.060671620070934296,-0.19319182634353638,0.041311852633953094,-0.07761334627866745,-0.16930828988552094,-0.16964320838451385,0.08870953321456909,-0.08364317566156387,0.14985594153404236,0.07101530581712723,0.034257542341947556,0.1836956888437271,0.013190405443310738,0.11582248657941818,-0.035803236067295074,0.004299556836485863,0.008199334144592285,0.0999206081032753,-0.09761958569288254,0.0453617237508297,0.15952806174755096,0.14700184762477875,0.02569291926920414,-0.09747906029224396,0.16321010887622833,-0.06453672796487808,-0.052064646035432816,-0.17751985788345337,-0.009712203405797482,0.026382584124803543,0.15365970134735107,-0.1273120939731598,0.02755645662546158,0.07287988811731339,-0.09987067431211472,0.1839878112077713,-0.1376762092113495,0.00675635552033782,0.07174482941627502,0.13773863017559052,0.04871935397386551,0.09411010891199112,0.16909343004226685,-0.06348858773708344,-0.01681794412434101,-0.0785791352391243,0.07288224250078201,-0.16284821927547455,-0.027367832139134407,0.07257689535617828,-0.09419521689414978,0.08451901376247406,-0.09565525501966476,0.1519850641489029,0.15814799070358276,0.08505970239639282,0.07092611491680145,-0.03025737777352333,-0.11012449860572815,0.08745439350605011,-0.0036820173263549805,-0.0679553970694542,0.009371642023324966,-0.07864680886268616,-0.059173498302698135,-0.03751567378640175,-0.1553153544664383,-0.11373529583215714,-0.13982176780700684,0.10758090019226074,-0.05315079167485237,0.051215678453445435,-0.00949882622808218,0.012376508675515652,-0.13141007721424103,-0.09592877328395844,0.12504759430885315,0.009586616419255733,-0.1853894144296646,-0.10043250024318695,0.02011834643781185,-0.07442890852689743,-0.15688709914684296,0.17578694224357605,-0.010090814903378487,-0.16303759813308716,-0.189403235912323,-0.13576406240463257,-0.13061624765396118,0.07309368252754211,0.0696200579404831,-0.18231318891048431,0.12015017122030258,-0.04263591393828392,0.1855504810810089,0.07206762582063675,-0.12806165218353271,0.1912822425365448,0.1665937751531601,-0.05085336044430733,-0.1769936978816986,-0.13335487246513367,-0.1090422198176384,0.16516709327697754,0.15388676524162292,0.08415801078081131,-0.036895010620355606,0.03566601127386093,-0.10893373936414719,0.04203074425458908,0.14501725137233734,-0.030808938667178154,-0.13891488313674927,-0.03498995676636696,0.08496716618537903,0.14553427696228027,0.03771090507507324,-0.04342711716890335,0.10172584652900696,-0.04547987878322601,-0.010100423358380795,-0.07250287383794785,0.03163062408566475,-0.11842535436153412,-0.05958379805088043,0.1667817234992981,-0.009885099716484547,0.11024363338947296,-0.06878802180290222,-0.03738350421190262,0.18296308815479279,0.06477423012256622,-0.06409640610218048,0.06539710611104965,-0.018824564293026924,0.08651253581047058,0.1434544026851654,-0.1680424064397812,-0.1178477481007576,-0.1687631905078888,-0.17713701725006104,-0.05365784093737602,0.17825613915920258,0.03425208851695061,0.11128918081521988,0.006957462057471275,0.13541358709335327,-0.06753040105104446,-0.053273461759090424,0.13920438289642334,0.1503300666809082,0.14936107397079468,-0.023216135799884796,0.14064571261405945,-0.1742323786020279,0.08734790235757828,0.09304174780845642,0.013746857643127441,0.048799823969602585,0.10863837599754333,0.10483621805906296,-0.10636229813098907,0.009596533142030239,-0.02748820185661316,-0.17848612368106842,0.15375304222106934,0.0027797904331237078,0.1152622178196907,-0.0015342638362199068,0.17322705686092377,-0.19064205884933472,0.0417640320956707,0.03826138377189636,0.19073091447353363,0.18785101175308228,0.17401818931102753,-0.1479373276233673,0.10751165449619293,0.01199827529489994,-0.06866735219955444,-0.06280788034200668,-0.062154605984687805,0.14319968223571777,0.00837160088121891,0.052729275077581406,-0.1487102210521698,0.05085266754031181,-0.07899664342403412,0.07192632555961609,0.026814231649041176,-0.05832786485552788,0.09392371028661728,-0.006781854201108217,-0.0914347693324089,0.13108010590076447,0.09093569219112396,0.09991233795881271,0.142680823802948,-0.11781885474920273,0.1875091940164566,0.05607980862259865,-0.02411733567714691,-0.010020880028605461,0.10955897718667984,0.1464596837759018,-0.05962932109832764,0.11578827351331711,0.192026287317276,-0.12773029506206512,0.17494094371795654,0.04790467023849487,-0.019827332347631454,0.023506229743361473,0.0703374519944191,-0.17091602087020874,0.0350462943315506,0.11764967441558838,-0.14815296232700348,0.04878921061754227,-0.11211921274662018,0.037126973271369934,0.06036284193396568,-0.14643806219100952,0.07298285514116287,-0.041974008083343506,-0.1524176001548767,-0.0023378990590572357,-0.19307830929756165,0.15342977643013,0.02787448652088642,0.10351037979125977,0.06249469891190529,-0.07544997334480286,0.060796644538640976,0.09027693420648575,0.003421735716983676,0.12486922740936279,-0.10508100688457489,0.16727985441684723,-0.12397180497646332,0.17276011407375336,-0.16574664413928986,0.16653360426425934,-0.17593829333782196,-0.05448698624968529,-0.1316925436258316,0.05440279096364975,0.016066769137978554,0.11969529092311859,-0.07731867581605911,0.12853354215621948,-0.12995684146881104,-0.04605990648269653,-0.09050516784191132,0.09865066409111023,-0.08979369699954987,-0.0922803059220314,-0.03422055393457413,-0.00038025269168429077,-0.1310623735189438,-0.07933609932661057,-0.13667383790016174,0.14449630677700043,0.04815855622291565,-0.027093244716525078,-0.1310144066810608,-0.03418021649122238,-0.057644493877887726,0.18326856195926666,-0.05932264029979706,-0.10037393867969513,0.0495666041970253,-0.09657510370016098,-0.02966795675456524,-0.007663203403353691,-0.09315954148769379,-0.18773621320724487,0.183004230260849,-0.10504645854234695,0.12746132910251617,-0.13636496663093567,0.1051289290189743,0.14786265790462494,-0.043211713433265686,-0.14738233387470245,-0.14328190684318542,0.12041928619146347,-0.07474705576896667,0.0468737855553627,0.04944179952144623,0.08726727962493896,-0.010304760187864304,-0.11827990412712097,-0.06937114894390106,0.12676863372325897,-0.1722526103258133,0.0660942941904068,-0.12390775978565216,-0.14128927886486053,-0.07740043103694916,-0.13268911838531494,-0.01422390528023243,0.022692441940307617,-0.050784703344106674,0.1666935831308365,0.040579669177532196,0.1301761418581009,0.18760301172733307,0.11087223142385483,-0.16278648376464844,-0.19268196821212769,0.1317346692085266,0.16432130336761475,-0.13296030461788177,0.1642484962940216,-0.01689436100423336,0.10968813300132751,0.010802111588418484,0.1380419284105301,-0.1742347627878189,-0.025489365682005882,-0.10491377115249634,-0.07277188450098038,0.03260459750890732,-0.14223353564739227,0.11259404569864273,0.07576049864292145,0.1684393286705017,-0.11828858405351639,-0.12953364849090576,0.16353687644004822,-0.0037024803459644318,0.10854889452457428,0.09292124211788177,-0.09452309459447861,0.07929860800504684,-0.027835413813591003,-0.1025002971291542,-0.15548314154148102,0.10108408331871033,0.13858138024806976,-0.0023553967475891113,-0.15259170532226562,0.009559404104948044,0.04854053258895874,0.032208867371082306,-0.16077375411987305,0.08891850709915161,0.1336851418018341,0.12065800279378891,0.09007789939641953,-0.07766581326723099,0.10160413384437561,0.03379901126027107,-0.10042449831962585,-0.09816132485866547,-0.09723138064146042,-0.06614292412996292,-0.13035982847213745,0.012284763157367706,-0.046305131167173386,-0.07280773669481277,-0.009813071228563786,-0.0017282192129641771,0.17870615422725677,-0.13548296689987183,0.16330070793628693,0.03427552059292793,-0.11209006607532501,-0.12734128534793854,-0.017110593616962433,0.16238819062709808,-0.14392167329788208,-0.09715481102466583,-0.16666945815086365,0.15507353842258453,0.10613100975751877,-0.10486683994531631,0.0800817608833313,0.08783543109893799,-0.03860984742641449,-0.04244062304496765,-0.14212508499622345,0.03404663875699043,-0.1377907693386078,0.18711739778518677,0.04316748306155205,-0.08433414250612259,0.08989183604717255,-0.035389915108680725,-0.13919955492019653,-0.1720869392156601,-0.17449289560317993,0.012252779677510262,-0.12024828791618347,-0.18097205460071564,0.18311470746994019,-0.0823216661810875,0.12268722057342529,-0.05094321072101593,0.18444126844406128,0.08707813173532486,-0.15396790206432343,0.18302634358406067,0.09779848903417587,0.14282453060150146,0.12095602601766586,-0.022889312356710434,-0.03500894829630852,0.0660453513264656,0.06914439052343369,-0.016733868047595024,0.09431471675634384,-0.11198333650827408,0.09937048703432083,-0.027475997805595398,0.05426223948597908,-0.1357385814189911,0.038921650499105453,-0.1111437976360321,0.11206740885972977,-0.08892152458429337,-0.054455287754535675,0.1417035013437271,0.12912292778491974,-0.00965713057667017,-0.0009893093956634402,-0.13171888887882233,-0.12280768156051636,-0.13703256845474243,0.03561229631304741,-0.1587526947259903,-0.13535957038402557,0.1463586390018463,0.029113788157701492,0.07318387925624847,0.06171869486570358,-0.16433286666870117,-0.13774171471595764,-0.19172579050064087,0.006154212635010481,0.12432921677827835,0.10300879180431366,0.122833251953125,0.024398252367973328,0.007195006124675274,-0.11945725232362747,0.19778385758399963,0.03630547225475311,0.11217016726732254,0.01714502088725567,0.23280811309814453,-0.18033947050571442,-0.15259870886802673,-0.1566361039876938,0.09796742349863052,-0.21394118666648865,0.13957758247852325,-0.14224611222743988,-0.11212325841188431,0.22375138103961945,-0.25283974409103394,-0.7030332684516907,-0.23006385564804077,0.17775817215442657,-0.2998436391353607,-0.1097370833158493,0.5749461054801941,0.35054004192352295,0.07677925378084183,-0.10663998872041702,-0.08070594072341919,-0.15506738424301147,-0.2917719781398773,-0.03524722158908844,0.15730006992816925,0.27661263942718506,0.044739652425050735,-0.0212714746594429,0.0514984168112278,0.20371901988983154,-0.0971851721405983,0.07002921402454376,-0.12425994873046875,-0.15557874739170074,-0.020722491666674614,0.16920523345470428,-0.02226082980632782,0.32192838191986084,-0.18858060240745544,0.19206078350543976,-0.1707228422164917,0.5713872313499451,-0.11483139544725418,0.07279635220766068,-0.12607838213443756,-0.14891617000102997,-0.06246272101998329,-0.09013991057872772,-0.21204009652137756,-0.16160060465335846,0.4222055673599243,-0.052667759358882904,0.008199687115848064,-0.23964941501617432,0.005067852325737476,-0.1271963268518448,-0.025577399879693985,-0.19092074036598206,0.184734508395195,-0.05632225424051285,0.12677286565303802,0.15303084254264832,0.18779601156711578,0.19636836647987366,0.11364321410655975,0.12307878583669662,-0.1087457537651062,-0.30155307054519653,0.021524757146835327,-0.06552636623382568,0.09854396432638168,-0.13305240869522095,-0.17702524363994598,0.37450167536735535,-0.11587411165237427,-0.19742614030838013,0.06763560324907303,0.5161766409873962,0.33210116624832153,0.27803727984428406,0.044187404215335846,-0.30579715967178345,0.051652707159519196,-0.0758124440908432,0.04081026464700699,-0.2357589453458786,0.17733214795589447,0.33886289596557617,0.10202795267105103,-0.08819293975830078,0.13562455773353577,-0.08386867493391037,0.35452014207839966,0.1671517938375473,0.07518046349287033,-0.13493846356868744,0.08125471323728561,-0.10862955451011658,0.3230592608451843,0.07815926522016525,0.04537094011902809,0.16489487886428833,0.013396147638559341,-0.21811328828334808,-0.10649477690458298,0.3239313066005707,-0.2264137864112854,-0.06880226731300354,-0.04603693261742592,-0.07746600359678268,0.08356384187936783,-0.1515304446220398,-0.07988610863685608,0.025247573852539062,-0.21890889108181,0.09259511530399323,0.01728856936097145,0.29406166076660156,-0.0404852032661438,-0.03234108164906502,0.0991458147764206,0.06293663382530212,-0.003352934028953314,0.07317555695772171,-0.007300448603928089,0.42239320278167725,0.0337347574532032,-0.028440052643418312,0.25767841935157776,-0.07930365204811096,-0.11661948263645172,0.12063068151473999,0.08195333927869797,-0.0035548959858715534,0.186763197183609,0.13104745745658875,0.17243866622447968,0.10605679452419281,-0.14695067703723907,-0.08491456508636475,-0.1401674598455429,0.37133508920669556,-0.38632214069366455,0.09927591681480408,0.17084529995918274,0.07625971734523773,0.04531507566571236,-0.11816814541816711,0.3589703440666199,-0.2112238109111786,-0.26304224133491516,-0.199639230966568,0.2871077060699463,0.08228602260351181,-0.0676172748208046,0.10319630801677704,-0.032971031963825226,0.29267746210098267,-0.16733714938163757,0.1060391217470169,-0.194986954331398,0.19224944710731506,-0.17870478332042694,-0.39248043298721313,-0.14211447536945343,0.15020835399627686,-0.1279550939798355,0.14814648032188416,0.40632179379463196,-0.08444486558437347,0.05224364250898361,-0.013510561548173428,0.21355298161506653,0.1046651154756546,-0.058429040014743805,-0.1026356890797615,-0.287925124168396,-0.2141941487789154,0.09322279691696167,0.00016798310389276594,0.028302615508437157,-0.053641557693481445,0.1888730376958847,0.022380249574780464,0.09825476258993149,-0.02368803322315216,0.16226324439048767,0.039120666682720184,0.2932834029197693,0.20536011457443237,0.3068619966506958,0.1702343076467514,0.10378412157297134,0.11939433962106705,-0.01652686297893524,-0.09594378620386124,0.05945808067917824,-0.1991140991449356,-0.3027814030647278,-0.08396686613559723,0.015235607512295246,0.4170204997062683,-0.04494047537446022,-0.308193176984787,-0.13863064348697662,0.42262545228004456,0.11586552858352661,-0.05176682025194168,-0.07383270561695099,0.19668853282928467,-0.13177090883255005,0.11498189717531204,-0.1920323371887207,-0.19302313029766083,0.18012171983718872,-0.06882001459598541,0.06285510212182999,-0.0004316231934353709,-0.20943093299865723,0.09318157285451889,-0.0540529265999794,0.16104356944561005,-0.14513111114501953,-0.12906359136104584,0.016175871714949608,-0.08743428438901901,0.08497243374586105,0.0515977218747139,0.04761749133467674,-0.018334385007619858,0.07782483845949173,-0.35756003856658936,0.2389407455921173,-0.02528681606054306,-0.23680762946605682,-0.17381717264652252,-0.15125218033790588,-0.038272660225629807,-0.29346221685409546,0.11839814484119415,0.015789471566677094,-0.03544824942946434,-0.24682055413722992,-0.25335556268692017,-0.17185617983341217,0.2324289232492447,0.1679108887910843,0.20766711235046387,0.010710974223911762,-0.15440934896469116,0.030963385477662086,0.16326390206813812,0.25749674439430237,-0.09652546048164368,0.21110227704048157,0.2100861519575119,-0.0871056467294693,0.174092635512352,0.04995672032237053,0.2145368754863739,-0.16154158115386963,-0.28054195642471313,0.29170435667037964,0.054913170635700226,0.041396334767341614,0.024959946051239967,-0.09857704490423203,0.03182877227663994,0.07619044929742813,0.07461393624544144,-0.03875907510519028,0.05631191283464432,0.10411813110113144,-0.07421170920133591,-0.1397021859884262,0.04774634912610054,0.331099271774292,0.054289560765028,-0.11461196094751358,-0.13237051665782928,-0.05553236976265907,0.16004687547683716,-0.030855996534228325,-0.13110356032848358,-0.43082866072654724,0.15665486454963684,-0.20459556579589844,-0.07218088954687119,-0.008642029948532581,0.05876367911696434,-0.0004363571642898023,-0.04978165403008461,0.19970490038394928,0.3023317754268646,0.10574764013290405,0.1659902185201645,-0.1450471729040146,-0.043157223612070084,-0.2742055654525757,-0.39011478424072266,0.07830724120140076,0.2855353355407715,0.03027292899787426,0.06021818891167641,0.17331966757774353,0.19982896745204926,-0.0008320812485180795,-0.02672889642417431,0.03534666448831558,0.037240516394376755,-0.02992137335240841,0.1675662100315094,-0.002936589764431119,0.1564624011516571,0.011077375151216984,0.2474551498889923,0.09372018277645111,0.11059557646512985,0.03550267219543457,-0.15337948501110077,-0.20597463846206665,0.346733421087265,0.06433986127376556,0.3675036132335663,-0.1252763569355011,-0.2744714617729187,-0.03203399106860161,0.09732315689325333,-0.3613983392715454,0.16966280341148376,-0.15611712634563446,-0.20705874264240265,-0.33924776315689087,0.04663682356476784,0.26502856612205505,-0.06659131497144699,-0.09101784229278564,0.10318927466869354,-0.15487417578697205,-0.10995804518461227,-0.05710439383983612,0.11013344675302505,-0.21401026844978333,-0.23192335665225983,-0.13104602694511414,0.19528456032276154,-0.12563437223434448,0.23227085173130035,-0.26443514227867126,0.21955080330371857,0.126320943236351,0.06666754186153412,0.2030499279499054,0.08614324778318405,0.07385049015283585,0.1518227607011795,-0.13526208698749542,0.23700806498527527,0.04696203023195267,0.029995931312441826,0.0037043311167508364,0.0246110986918211,-0.12744691967964172,-0.06026148051023483,0.09530982375144958,0.16678163409233093,-0.2841469645500183,0.015608185902237892,-0.07152891159057617,-0.14531096816062927,-0.04287651181221008,0.03970891982316971,-0.016392037272453308,-0.08342576771974564,0.01206152606755495,-0.042467113584280014,0.23815815150737762,0.16216817498207092,-0.18240422010421753,-0.016725515946745872,0.12175747007131577,-0.019381999969482422,0.04415084794163704,0.0795685350894928,-0.11627759039402008,-0.0930643230676651,0.15436328947544098,-0.21459811925888062,-0.10977530479431152,-0.27829858660697937,0.10473353415727615,0.16579411923885345,0.06743192672729492,0.2842403054237366,-0.29720020294189453,-0.06507842987775803,0.10709095001220703,-0.11669861525297165,-0.04451937600970268,0.01618071272969246,0.07270316034555435,0.1561003029346466,-0.00766405276954174,0.0005260524922050536,-0.1032782569527626,0.03216889500617981,0.15985076129436493,0.09374097734689713,-0.03116850182414055,-0.1252225935459137,0.13014864921569824,0.16860073804855347,0.07173746824264526,-0.02146950364112854,-0.08663544803857803,-0.1664959043264389,0.11476932466030121,-0.005568568594753742,0.016396528109908104,-0.034191105514764786,0.13351213932037354,-0.28130030632019043,-0.17925432324409485,0.16747722029685974,0.18913888931274414,0.127285897731781,0.08652623742818832,-0.1483486145734787,-0.004988366737961769,0.27273526787757874,-0.14922097325325012,0.31931132078170776,0.1142256110906601,-0.03298225253820419,-0.14080104231834412,-0.2555394172668457,-0.2581108510494232,0.04030836746096611,-0.08781804889440536,-0.024115383625030518,-0.024349050596356392,-0.09365984797477722,-0.15114738047122955,-0.09128726273775101,0.06480786949396133,0.01007129903882742,-0.042154718190431595,-0.20718900859355927,-0.06329192221164703,-0.002866018796339631,-0.3682442605495453,-0.17931026220321655,-0.123736172914505,-0.05750694498419762,0.13367728888988495,0.18186594545841217,-0.08376787602901459,-0.004795219283550978,-0.11413190513849258,-0.2083083987236023,-0.03412318602204323,0.23422500491142273,0.10992466658353806,-0.12075172364711761,0.04768773913383484,0.0879737064242363,0.24067072570323944,-0.0235945712774992,0.1482035368680954,0.009893697686493397,-0.0435122586786747,-0.1448083072900772,0.1488872915506363,0.0869910717010498,-0.07447588443756104,0.07911183685064316,0.10418425500392914,-0.09263037890195847,-0.02016456425189972,0.1168481633067131,0.14014074206352234,0.11535141617059708,0.05578985437750816,0.22719770669937134,0.11308977007865906,0.049017854034900665,-0.1350102573633194,0.10145597904920578,-0.08223075419664383,0.20251698791980743,-0.020240342244505882,-0.08753007650375366,-0.20190124213695526,0.03712831437587738,-0.13190831243991852,0.17173585295677185,-0.032465435564517975,-0.18571732938289642,-0.046826381236314774,-0.08470889925956726,0.0013560212682932615,-0.017663784325122833,-0.05351466313004494,0.0592954121530056,-0.10108833760023117,0.18403422832489014,-0.1402057707309723,0.07230404764413834,-0.0884588286280632,-0.1012854278087616,-0.06739745289087296,-0.14980429410934448,-0.019988376647233963,-0.10891696065664291,0.09509705752134323,0.15710647404193878,0.05535369738936424,0.11611031740903854,-0.12681610882282257,-0.0014221231685951352,0.02935549058020115,-0.1102021262049675,-0.05598214268684387,0.01924162544310093,0.18208715319633484,-0.16491003334522247,-0.08254056423902512,0.16759134829044342,0.14430111646652222,-0.030002320185303688,-0.1522475630044937,-0.15908361971378326,0.11644445359706879,-0.16386514902114868,-0.03821675479412079,-0.07623487710952759,0.13529396057128906,0.11518575251102448,-0.18184246122837067,0.16003747284412384,0.12043236941099167,-0.05199522525072098,-0.12931066751480103,0.1401672512292862,0.17115448415279388,-0.02171075902879238,0.18524235486984253,-0.07521785795688629,0.18336930871009827,0.13219600915908813,0.07517674565315247,-0.02434377744793892,-0.13424955308437347,-0.17011475563049316,-0.009326338768005371,-0.08979416638612747,-0.050962310284376144,0.11050543189048767,-0.12154848873615265,-0.09295432269573212,0.11627920717000961,-0.04555293917655945,0.08130861073732376,-0.10523047298192978,0.1697905957698822,-0.0490788072347641,0.04866648465394974,-0.04910513758659363,-0.04560244083404541,-0.18378084897994995,0.08682829886674881,-0.06461070477962494,-0.00946920644491911,-0.10172174870967865,-0.06336371600627899,-0.03260764107108116,-0.18832296133041382,-0.07369303703308105,-0.03197019174695015,0.038768213242292404,-0.017563480883836746,-0.05863768979907036,-0.1484854370355606,0.03832048922777176,0.08023686707019806,0.04540768265724182,0.147803395986557,-0.15105681121349335,-0.16755865514278412,0.05537740886211395,0.04956997558474541,-0.10439641028642654,0.1859704554080963,0.18959107995033264,-0.1310407668352127,-0.035597383975982666,-0.020648958161473274,-0.01628682017326355,0.07308657467365265,0.115963414311409,0.07688084989786148,0.05689619481563568,0.16553892195224762,-0.024195725098252296,0.053846102207899094,0.0011721455957740545,-0.09715980291366577,0.027067847549915314,0.04545419290661812,0.0021485774777829647,-0.08949744701385498,-0.18065540492534637,0.04171719774603844,0.18270844221115112,-0.030064573511481285,0.11581965535879135,-0.02301545813679695,-0.09685562551021576,-0.161847785115242,0.17188353836536407,0.18293553590774536,0.08763649314641953,-0.17499619722366333,0.09426344186067581,-0.10052148252725601,-0.025646816939115524,0.1242954283952713,0.11449515074491501,0.1422005146741867,0.13998346030712128,-0.14430610835552216,0.010205479338765144,-0.13984517753124237,-0.14912351965904236,-0.11815572530031204,0.05065896362066269,-0.021418187767267227,-0.01927316002547741,-0.18148554861545563,-0.12529639899730682,0.12289419025182724,0.014999560080468655,-0.07201024889945984,0.18964877724647522,-0.10963994264602661,0.11624032258987427,-0.11476064473390579,0.07556761801242828,0.02361413650214672,0.1364223212003708,-0.10935240238904953,0.1911465972661972,0.05314218997955322,0.01846153847873211,-0.17778314650058746,-0.15972690284252167,-0.15894567966461182,-0.08422517031431198,0.12400436401367188,-0.15819787979125977,-0.18274977803230286,0.09890608489513397,0.007267358712852001,-0.07684783637523651,0.10524659603834152,0.19070175290107727,-0.1558079868555069,-0.1479106843471527,-0.13625408709049225,-0.029604075476527214,-0.11107315123081207,0.14187078177928925,-0.01569407247006893,0.14712965488433838,0.012092805467545986,-0.06291496008634567,-0.04168548807501793,0.006189439445734024,0.035597097128629684,0.0736428052186966,-0.01923499070107937,0.14015993475914001,-0.04013168066740036,-0.16690906882286072,0.13905176520347595,-0.19213056564331055,0.18828436732292175,-0.07872027158737183,0.11349006742238998,0.19129317998886108,-0.12030597031116486,-0.09685807675123215,-0.1927269697189331,-0.1314961165189743,0.08636753261089325,0.02158632129430771,-0.020069843158125877,-0.18270966410636902,-0.16037091612815857,0.11516252160072327,-0.07266616076231003,0.1916452795267105,-0.0947800725698471,-0.11462003737688065,0.09278570860624313,0.04531421884894371,-0.021107379347085953,-0.01606587879359722,-0.0002626158529892564,-0.14447477459907532,0.13204407691955566,-0.043280333280563354,0.06303778290748596,0.1505119651556015,0.09850800037384033,0.045546866953372955,0.17714469134807587,-0.015137866139411926,-0.13870057463645935,0.0466485470533371,-0.16062317788600922,-0.12299942970275879,0.1668313443660736,0.17926357686519623,-0.027016615495085716,0.15207746624946594,-0.06197638437151909,0.12480698525905609,-0.11876720190048218,-0.16329282522201538,0.14083263278007507,-0.1146828904747963,0.15609213709831238,-0.016978731378912926,0.1504310518503189,-0.17143908143043518,-0.07944495230913162,-0.045932359993457794,0.053864482790231705,-0.05407626926898956,-0.05573933944106102,0.009001096710562706,0.0021040828432887793,-0.1272885650396347,-0.13822676241397858,0.14172914624214172,-0.01583971083164215,0.16482193768024445,-0.10680600255727768,-0.12744873762130737,0.12342921644449234,-0.05294270068407059,-0.08275467157363892,-0.00202974327839911,0.037822529673576355,0.10037769377231598,-0.0924978032708168,-0.10397765785455704,-0.1074509397149086,-0.01448802836239338,0.1782095581293106,-0.05586239695549011,-0.17392174899578094,-0.04793493449687958,0.1900828629732132,-0.15154193341732025,-0.15664593875408173,-0.11598577350378036,0.16769477725028992,-0.05007500573992729,-0.07186809927225113,-0.11512446403503418,-0.03151482343673706,-0.06672050803899765,-0.1063576266169548,0.034752149134874344,-0.09722471237182617,0.16070295870304108,0.04690564051270485,-0.051518023014068604,0.17589716613292694,-0.13541686534881592,-0.021873382851481438,-0.12964215874671936,0.08395855128765106,0.1272422820329666,-0.17760521173477173,-0.01620478369295597,0.05241287872195244,-0.07661978155374527,0.15519830584526062,-0.1321922242641449,-0.12682285904884338,-0.013847362250089645,0.14731216430664062,0.14000804722309113,0.004655031953006983,0.15231211483478546,0.08869153261184692,-0.15699003636837006,-0.09164135903120041,0.18490751087665558,0.01609029993414879,-0.14466074109077454,-0.013593809679150581,-0.07468457520008087,-0.15371879935264587,0.1524902582168579,-0.0023609555792063475,0.1621958464384079,-0.01984936185181141,-0.1325141340494156,0.051668234169483185,0.018932536244392395,-0.12745581567287445,-0.002373374765738845,-0.0716216042637825,-0.18200036883354187,0.09155987203121185,0.13883015513420105,-0.07463324815034866,0.10961341112852097,-0.12423724681138992,0.006552762817591429,-0.05041249468922615,-0.02214449644088745,0.057429127395153046,-0.08701575547456741,0.1520978808403015,-0.12112859636545181,0.13675062358379364,-0.0565323531627655,-0.04330131411552429,0.1827687919139862,-0.014886978082358837,0.06137828156352043,0.0935867428779602,-0.13607476651668549,-0.17031198740005493,0.15892118215560913,0.0784507468342781,0.11178219318389893,-0.18716150522232056,0.1502348929643631,0.052917443215847015,-0.046817995607852936,-0.06597812473773956,0.005291488487273455,-0.02164660021662712,-0.08051197975873947,0.07906901836395264,-0.16462130844593048,0.010115550830960274,-0.05515836551785469,0.07268601655960083,-0.11838626861572266,-0.12127134948968887,-0.061612460762262344,-0.01365073025226593,0.01651194877922535,-0.09347669780254364,0.0043603419326245785,-0.17314060032367706,-0.03509790077805519,-0.124317467212677,0.0104816984385252,-0.11799870431423187,-0.07525623589754105,-0.11595172435045242,0.0185078214854002,0.03287817910313606,0.1598508656024933,-0.044320765882730484,-0.061289187520742416,-0.143942192196846,0.0630398616194725,-0.03459541127085686,-0.11010313034057617,0.05252810940146446,0.06336389482021332,-0.165944904088974,0.15520639717578888,0.18475303053855896,-0.17242033779621124,-0.036134272813797,0.16610439121723175,0.19038449227809906,0.1840057522058487,0.16263316571712494,-0.09819439053535461,0.08222749829292297,-0.110097736120224,0.14528295397758484,-0.13920266926288605,-0.020958438515663147,-0.011868859641253948,0.03260035440325737,0.03494748845696449,0.1229052022099495,0.1500001847743988,-0.04190932959318161,-0.10237782448530197,0.09056682884693146,0.022040266543626785,-0.17254406213760376,0.1300814300775528,0.10849831998348236,0.07035184651613235,0.19210565090179443,0.07765864580869675,-0.035021036863327026,0.09963040053844452,0.06270226836204529,-0.12018916010856628,-0.00014219022705219686,-0.1728610098361969,0.03340902179479599,-0.02846389263868332,-0.08206337690353394,-0.09128780663013458,0.03959124907851219,0.022311151027679443,0.13135741651058197,0.026687122881412506,0.01292690820991993,0.013034080155193806,-0.16147691011428833,-0.04982493817806244,0.10582205653190613,0.17170748114585876,0.059332121163606644,0.1446126252412796,0.13660851120948792,0.12990237772464752,0.028163626790046692,0.08027172833681107,-0.0617901012301445,-0.18705037236213684,-0.005859680008143187,0.1369660645723343,0.10469810664653778,0.04295245558023453,0.11257711052894592,-0.11725427210330963,-0.07423137873411179,-0.14655685424804688,0.10780398547649384,-0.11260578781366348,-0.11628106981515884,0.07704184204339981,-0.14265578985214233,0.011441483162343502,-0.062070682644844055,0.1391262412071228,-0.04105478897690773,-0.18647754192352295,0.19432908296585083,-0.10321088880300522,0.01501943077892065,0.13052307069301605,-0.18617278337478638,-0.05520082637667656,0.07827327400445938,-0.059856537729501724,0.13330495357513428,-0.05338840186595917,0.14116770029067993,-0.06108485534787178,0.09160185605287552,0.038495663553476334,-0.16236837208271027,-0.010869915597140789,-0.11764910072088242,-0.1231364905834198,-0.17627808451652527,-0.1476190984249115,0.05576746165752411,-0.05909017100930214,-0.07394640147686005,-0.1869838833808899,0.1178564578294754,-0.19219890236854553,-0.01664089597761631,-0.13673844933509827,-0.152837872505188,-0.1581891030073166,0.1875981092453003,-0.07631780207157135,-0.08087566494941711,0.12323997914791107,0.14613007009029388,-0.13054661452770233,0.03978175297379494,0.009001011960208416,0.17568163573741913,0.10573121905326843,0.17308232188224792,-0.11112770438194275,0.05977712199091911,0.11129087954759598,-0.002461179392412305,0.08116863667964935,0.1214774027466774,0.12780675292015076,-0.17461968958377838,0.13428816199302673,0.07614090293645859,-0.10311499983072281,0.03872731328010559,-0.20512714982032776,-0.4056890308856964,-0.2649002969264984,-0.1243959367275238,-0.18558856844902039,-0.14726625382900238,-0.11475905776023865,0.3747587502002716,0.15215232968330383,0.24767953157424927,0.07457904517650604,-0.21036849915981293,0.2944491505622864,0.1083034798502922,-0.18643245100975037,0.39334359765052795,0.07451985031366348,-0.05711481720209122,-0.20047388970851898,0.2534489631652832,0.12070884555578232,0.09790845215320587,0.07683558017015457,-0.1661321073770523,0.07290517538785934,-0.015470575541257858,-0.4328039586544037,0.30167311429977417,0.5156676769256592,-0.19735920429229736,-0.13884097337722778,-0.02822234481573105,0.053013093769550323,-0.018828226253390312,0.036855097860097885,0.0975780040025711,-0.10690343379974365,0.21691714227199554,0.27962708473205566,-0.06476534157991409,0.29458704590797424,-0.3586430251598358,0.157148540019989,0.24828188121318817,0.09443335235118866,-0.07179973274469376,-0.2052321881055832,-0.24947986006736755,0.00471094436943531,-0.04332200437784195,0.6046904921531677,0.021999981254339218,0.4071027636528015,-0.2496834546327591,-0.22564953565597534,-0.16178813576698303,0.07636208087205887,0.0010031320853158832,-0.017088821157813072,-0.12483083456754684,0.2031298577785492,0.1379874348640442,0.1284429430961609,0.05090897157788277,0.15683801472187042,0.3136342763900757,-0.16666853427886963,-0.02724469266831875,-0.24336832761764526,-0.05788451433181763,0.04672064259648323,-0.21595963835716248,-0.14056475460529327,0.16058167815208435,0.047409214079380035,0.18009956181049347,-0.18508924543857574,-0.23849354684352875,-0.014254110865294933,0.3686883747577667,-0.3444439470767975,0.027440493926405907,-0.04668471962213516,-0.24592319130897522,0.10126432031393051,0.04480598121881485,0.11397429555654526,0.06319282948970795,-0.1540214717388153,0.1349773108959198,-0.6729634404182434,-0.12928123772144318,0.3971743881702423,-0.19970132410526276,-0.005507706664502621,0.33118584752082825,-0.1677689254283905,-0.20031438767910004,0.1305512934923172,0.3533417880535126,-0.14208762347698212,0.17875124514102936,0.18031956255435944,0.13690806925296783,-0.08082950860261917,0.22658279538154602,0.07066165655851364,0.25302237272262573,0.007270284928381443,0.07076091319322586,-0.18649819493293762,-0.26095685362815857,-0.09294339269399643,0.17919117212295532,0.4627563953399658,0.1535273641347885,0.36599990725517273,-0.18758611381053925,-0.21986907720565796,0.14436016976833344,0.2070188820362091,-0.1260085105895996,-0.1580396294593811,-0.08164874464273453,0.27784454822540283,-0.18476468324661255,-0.33379271626472473,0.25016456842422485,-0.043243780732154846,0.04452813044190407,0.07769046723842621,0.13704794645309448,-0.27582255005836487,0.060249388217926025,0.06292705237865448,0.4155372381210327,-0.13603270053863525,-0.136427104473114,-0.04240203648805618,-0.08149164170026779,0.4177260100841522,-0.1359952837228775,-0.0827694684267044,0.16539737582206726,-0.23189018666744232,0.029508868232369423,-0.07604993879795074,0.09838046878576279,-0.27577105164527893,0.30379483103752136,0.0615326426923275,-0.19316433370113373,0.13225774466991425,0.014340920373797417,-0.06932315230369568,0.09530062228441238,0.10709113627672195,-0.34100860357284546,-0.17822480201721191,0.22976821660995483,-0.0766368880867958,-0.25921928882598877,0.11479019373655319,-0.06369565427303314,-0.24814045429229736,-0.26009392738342285,-0.03379032015800476,0.22183836996555328,-0.03558072820305824,-0.07716850191354752,0.07198075205087662,-0.1678522378206253,0.012058941647410393,-0.04385540634393692,-0.08109518140554428,-0.003783780848607421,-0.08842331916093826,-0.05693196505308151,-0.14722661674022675,-0.06420394778251648,0.032538264989852905,-0.028900904580950737,-0.1266552060842514,0.35073140263557434,-0.03759457916021347,-0.04183372110128403,0.2277068942785263,-0.0900614857673645,0.11799495667219162,0.018891124054789543,0.08038841187953949,0.1499783843755722,-0.027047211304306984,0.0021722514647990465,0.20426836609840393,-0.24468912184238434,-0.2747672200202942,-0.02921932190656662,0.2270190566778183,0.014889872632920742,0.13590466976165771,0.07960963994264603,0.16825257241725922,0.043438442051410675,0.3423226475715637,0.18738305568695068,-0.02264396846294403,0.17689964175224304,-0.11536169052124023,-0.04371608793735504,0.16835197806358337,0.03163652867078781,0.0255267396569252,-0.2765442728996277,-0.1804811954498291,0.1669790893793106,0.04973093047738075,0.2577635943889618,-0.04260772094130516,-0.31886622309684753,0.22479167580604553,0.09005400538444519,0.1582426130771637,0.14637358486652374,-0.018552344292402267,-0.13361844420433044,-0.07546170055866241,0.0444561243057251,-0.16868312656879425,-0.009141232818365097,-0.2310374528169632,0.29052549600601196,0.022242266684770584,0.1476525366306305,-0.01556839793920517,0.1932528018951416,0.23198291659355164,0.3147726356983185,-0.1282753199338913,-0.02940075658261776,-0.08187847584486008,0.06596384942531586,0.07206972688436508,0.0032393040601164103,-0.10524804145097733,-0.04274136200547218,0.07218414545059204,0.16866150498390198,-0.0984269455075264,-0.10652598738670349,-0.04289376735687256,-0.06773664057254791,0.16346348822116852,-0.004141513258218765,-0.18362942337989807,0.24987030029296875,0.13335856795310974,-0.3271504044532776,-0.16090348362922668,-0.07255420088768005,0.13757099211215973,0.1841171830892563,0.35250207781791687,0.1759762465953827,0.07754173874855042,-0.12353052198886871,0.1857220083475113,0.0937061533331871,-0.013751489110291004,